tree
version=v4
num_class=1
num_tree_per_iteration=1
label_index=0
max_feature_idx=112
objective=binary sigmoid:1
feature_names=Column_0 Column_1 Column_2 Column_3 Column_4 Column_5 Column_6 Column_7 Column_8 Column_9 Column_10 Column_11 Column_12 Column_13 Column_14 Column_15 Column_16 Column_17 Column_18 Column_19 Column_20 Column_21 Column_22 Column_23 Column_24 Column_25 Column_26 Column_27 Column_28 Column_29 Column_30 Column_31 Column_32 Column_33 Column_34 Column_35 Column_36 Column_37 Column_38 Column_39 Column_40 Column_41 Column_42 Column_43 Column_44 Column_45 Column_46 Column_47 Column_48 Column_49 Column_50 Column_51 Column_52 Column_53 Column_54 Column_55 Column_56 Column_57 Column_58 Column_59 Column_60 Column_61 Column_62 Column_63 Column_64 Column_65 Column_66 Column_67 Column_68 Column_69 Column_70 Column_71 Column_72 Column_73 Column_74 Column_75 Column_76 Column_77 Column_78 Column_79 Column_80 Column_81 Column_82 Column_83 Column_84 Column_85 Column_86 Column_87 Column_88 Column_89 Column_90 Column_91 Column_92 Column_93 Column_94 Column_95 Column_96 Column_97 Column_98 Column_99 Column_100 Column_101 Column_102 Column_103 Column_104 Column_105 Column_106 Column_107 Column_108 Column_109 Column_110 Column_111 Column_112
feature_infos=[0:12] [0:3186] [0:10] [0:10] [0:65] [0:11] [1000:18395] [0:3499.89990234375] [0:41690] [0:63874.78125] [0:322] [0:41690] [0:63874.78125] [0:12] [0:30250] [0:30250] [0:6] [0:63874.78125] [0:108800] [0:86660.4140625] [0:2251] [0:10] [0:3186] [0:3254] [100:237] [0:24] [0:64800] [0:108800] [0:12] [0:63874.78125] [0:87886.0234375] [0:108800] [0:10] [0:7] [0:1085] [0:15] [0:47] [0:4] [0:2] [0:22] [0:126] [0:21] [0:4489.85009765625] [0:11] [0:1] [100:231] [0:30250] [0:7519.8701171875] [0:2] [0:25] [0:3] [0:26] [0:61] [100:540] [0:7] [0:3] [0:115] [0:22] [0:30250] [0:10] [0:3] [0:64800] [0:66719.5625] [0:6] [1:66] [0:349] [0:2] [0:3328] [0:6] [86400:13365930] [0:640] [0:64800] [0:7] [0:38] [0:7] [0:15] [0:210] [0:27] [0:2253] [0:12] none [0:5690] [10:102] [0:323] [1:1052] [0:63874.78125] [0:68] [0:65] [0:86] [0:47] [0:64800] [0:95] [0:12] [1:323] [0:4682] [0:44] [0:64800] [0:2251] [0.29199999999999998:31937.391] [0:9] [0:9] [0:64800] [0:30250] [0:3] [0:28] [100:600] [0:9] [0:31] [0:3] [0:2915] [0:66719.5625] [0:1426] [0.00038760900497436523:0.99489247798919678]
tree_sizes=6821 6876 6894 6920 6982 6990 6999 6962 6996 7002 6993 6974 6991 6977 7010 7051 7048 6995 6999 6990 7015 7003 7030 7021 7049 7028 7068 7051 7034 7013 6969 7065 7022 7038 7051 6998 7044 7047 6997 7019 7036 7034 7005 7068 7059 7046 7017 7054 7023 7018 6964 7052 7069 7032 7024 6999 7086 7071 7044 7021 7045 7055 6971 7090 6967 7095 7038 7080 7061 7006 7016 7002 7017 7042 7070 6989 7093 7056 7026 7014 7060 7029 7021 7041 7061 7045 7036 7111 7057 7048 7048 6965 7013 6998 7049 6998 7042 7029 7017 7006 7077 7014 7015 7045 7101 7025 7047 6941 7059 7053 7021 7063 7060 7080 7043 6960 7016 6996 7028 7033 7012 7042 7002 7000 6991 7080 6995 6958 7053 6972 7068 6958 6966 7007 7004 7037 6959 7016 6996 6996 6985 7022 7011 6996 7045 7029 7014 7061 7017 7006 6971 7008 6945 6975 6911 6939 7024 6981 6987 6973 6981 6976 6987 6902 6971 6984 7014 6934 6982 6993 6903 6981 6944 7007 6989 7015 6991 6984 6974 6963 6952 6929 7032 6987 6931 6985 6931 6923 6938 7048 6949 6984 7008 7024 6990 6992 6932 6935 6989 6939 6927 6927 6945 6998 6982 7014 7004 7057 6998 6917 6904 6956 6976 7017 6910 6983 6907 6996 6962 6974 6969 6952 7025 7044 7038 6962 6970 6984 7006 7027 6950 6996 6950 7034 6991 6977 6961 6947 6947 7011 6956 6929 6978 6945 7012 7036 6969 6920 7004 6924 6934 6955 6908 6925 6956 6945 6935 6955 6908 6959 6984 6981 6888 7036 6931 6966 7017 6960 6910 6963 7028 6964 6965 6965 7045 6949 6932 6985 6922 7014 6974 6909 6941 6950 6946 6977 6898 7004 6931 6945 6982 6952 6983 6970 6895 6917 6928 6929 6933 6950

Tree=0
num_leaves=64
num_cat=0
split_feature=78 23 94 97 94 95 23 79 45 94 1 86 70 45 4 19 70 70 94 51 75 70 97 1 65 98 50 105 7 69 86 81 90 70 82 23 69 94 36 0 8 86 98 99 94 7 50 1 76 98 20 69 98 69 7 70 86 105 90 70 50 22 16
split_gain=31779 7207.23 9346.11 6694.42 7584.68 4969.57 4190.58 2313.86 1902.71 2868.08 1665.94 1393.32 1386.39 1307.44 2389.67 1234.75 1041.23 1040.18 914.404 913.047 902.829 854.11 1948.3 1493.23 822.773 777.476 776.825 718.138 1058.2 634.827 619.051 609.303 575.828 573.397 541.69 507.907 517.879 498.311 489.498 487.926 463.225 539.562 460.921 452.667 423.086 422.232 418.519 410.823 573.445 955.061 420.732 404.183 393.435 390.027 373.998 373.275 368.616 479.775 349.118 392.401 344.809 363.741 342.584
threshold=3.5000000000000004 172.50000000000003 9.5000000000000018 1.5000000000000002 4.5000000000000009 1.0000000180025095e-35 5.5000000000000009 3.5000000000000004 166.50000000000003 4.5000000000000009 31.500000000000004 8.5000000000000018 34.500000000000007 166.50000000000003 1.0000000180025095e-35 170.85119628906253 11.500000000000002 300.50000000000006 1.0000000180025095e-35 1.0000000180025095e-35 1.0000000180025095e-35 67.500000000000014 30.500000000000004 6.5000000000000009 1.0000000180025095e-35 266.2050000000001 1.5000000000000002 527.50000000000011 85.629650115966811 2586896.5000000005 3.5000000000000004 1.5000000000000002 3163.444946289063 11.500000000000002 83.000000000000014 1.5000000000000002 2682068.0000000005 7.5000000000000009 1.5000000000000002 1.5000000000000002 1.0000000180025095e-35 1.5000000000000002 120.03500000000001 1.5000000000000002 2.5000000000000004 422.72500610351568 1.5000000000000002 3.5000000000000004 1.0000000180025095e-35 99.960000000000022 10.500000000000002 5775209.5000000009 4.7880000000000011 1541034.0000000002 319.97500610351568 4.5000000000000009 7.5000000000000009 577.50000000000011 3452.8000488281255 431.50000000000006 1.5000000000000002 1.0000000180025095e-35 1.5000000000000002
decision_type=2 2 2 2 2 2 2 2 2 2 2 2 2 2 2 2 2 2 2 2 2 2 2 2 2 2 2 2 2 2 2 2 2 2 2 2 2 2 2 2 2 2 2 2 2 2 2 2 2 2 2 2 2 2 2 2 2 2 2 2 2 2 2
left_child=3 2 10 5 19 8 12 11 15 18 33 13 29 30 62 24 -11 34 -10 -5 -9 22 23 42 25 47 44 43 -29 -6 32 -21 -7 -2 -4 45 -37 51 53 -3 -36 -42 -8 -13 -20 -27 -17 50 49 -49 58 -31 -25 -30 -32 -46 -48 -58 -1 -60 61 -56 -15
right_child=1 39 17 4 6 7 21 20 9 16 -12 27 -14 14 -16 46 -18 -19 26 31 -22 -23 -24 52 -26 35 -28 28 38 37 54 -33 -34 -35 40 36 -38 -39 -40 -41 41 -43 -44 -45 55 -47 56 48 -50 -51 -52 -53 -54 -55 60 -57 57 -59 59 -61 -62 -63 -64
leaf_value=-3.3411511482286458 -2.9066545657233407 -3.2460351333055359 -2.6236746353843836 -3.3408254481662265 -2.7503648573082047 -3.2815641859853848 -3.0864358952085658 -3.3440629879983867 -2.8451255363048529 -2.442074025658941 -1.8879907073167712 -3.1191921309112813 -3.1675873840961466 -2.3655044784183286 -3.2477111705284551 -3.1655318887890065 -3.2802970639823297 -2.8896499567164535 -3.2514090592095535 -3.3224474624774847 -2.1298155195904247 -3.2886459012959119 -3.2645069438475796 -3.3691676824928973 -3.3591113237639076 -3.2963326702523315 -3.3214441266655066 -3.2912109995888907 -3.3691676824928978 -2.0606432381655231 -3.2059041529245604 -3.1503354166905346 -2.0466882403713562 -3.2782008722684624 -2.0506550388915081 -3.3272475794218748 -2.5110254667162533 -2.0377010682485519 -3.3691676824928973 -2.6819015660111747 -3.0122575679926262 -2.1464511190924718 -2.0226431596055101 -1.9472377863238164 -2.9218683066259663 -3.0858824686613979 -3.2975746277800213 -3.2711486179591831 -3.2700899156259671 -2.1321407581699794 -2.5881834592182127 -2.5713171984418399 -2.155725320905459 -2.1132388187490854 -2.9517450803978074 -3.3136928894151398 -3.1334459310990721 -2.1471966779725937 -3.3691676824928973 -1.9408898850016345 -3.1810817173911672 -2.2677796753106501 -2.8214407802142256
leaf_weight=6906.6357234157622 17.621121548116207 41.824845973402262 5.0972976125776759 169.3585571013391 7.5953110121190539 767.09265528619289 11.848685178905727 1.9916593320667724 11.544872738420962 13.806587573140861 2.9030966535210601 34.803402904421091 5.7049224935472003 11.308574173599483 33.756937831640244 96.004731193184853 5.0635406747460356 4.692214358597993 410.58563484624028 68.492826860398054 6.6163598150014877 23.59609954431653 21.975766528397799 0.70889569446444411 6016.0939464792609 672.06687529012561 801.4909749366343 4.4896727316081515 0.67513875663280121 5.5023808665573624 199.06466239318252 206.32240402698517 0.94519425928592582 25.283946435898542 69.775590498000383 3.5782354101538649 4.2533741667866707 15.696976091712711 1.0464650727808482 4.2196172289550296 2.8018258400261393 5.0297837369143963 1.1139789484441269 0.84392344579100509 18.667586620897058 24.710078492760658 294.02292851358652 4.5909435451030722 70.146916814148426 3.0718813426792622 1.8566315807402123 13.097691878676413 11.578629676252602 7.3252555094659328 7.4265263229608536 9.0131024010479432 14.211670827120541 1.3502775132656086 0.97895119711756595 0.94519425928592682 10.633435416966677 2.633041150867939 6.4813320636749259
leaf_count=204599 522 1239 151 5017 225 22724 351 59 342 409 86 1031 169 335 1000 2844 150 139 12163 2029 196 699 651 21 178218 19909 23743 133 20 163 5897 6112 28 749 2067 106 126 465 31 125 83 149 33 25 553 732 8710 136 2078 91 55 388 343 217 220 267 421 40 29 28 315 78 192
internal_value=-3.31736 -2.65508 -2.46868 -3.32432 -3.15471 -3.33011 -2.79916 -3.2273 -3.33744 -3.27883 -3.04717 -3.23376 -2.43634 -3.24606 -3.00057 -3.34272 -2.667 -2.16546 -3.28805 -3.24951 -2.41076 -3.043 -2.92026 -2.62066 -3.34526 -3.33443 -3.29218 -2.97371 -2.66367 -2.33676 -3.25887 -3.19323 -3.28004 -3.12561 -2.12437 -3.28437 -2.88395 -2.24516 -2.35224 -3.19434 -2.09158 -2.4562 -2.99502 -3.09145 -3.23865 -3.28887 -3.25674 -3.33947 -3.22523 -2.81454 -3.34076 -2.42025 -2.22573 -2.21922 -3.18487 -3.04945 -3.28502 -3.04787 -3.34096 -2.66756 -2.98256 -2.77272 -2.53161
internal_weight=17223.7 179.249 133.205 17044.4 562.593 16481.8 118.419 1097.13 15384.7 1270.17 45.8082 1088.53 47.5973 1039.34 51.5468 14114.5 18.8701 87.3967 1251.3 444.174 8.60802 70.8221 47.226 25.2502 13708.9 7692.83 1239.76 49.1839 13.5365 41.8924 987.796 274.815 768.038 42.9051 82.7045 704.609 7.83161 34.297 9.04686 46.0445 77.6072 7.83161 12.9627 35.6473 438.266 696.777 405.59 6988.23 77.8097 7.66282 6910.42 18.6001 12.2875 8.00039 219.758 27.6807 309.585 15.5619 6908.56 1.92415 20.693 10.0596 17.7899
internal_count=510226 5310 3946 504916 16666 488250 3508 32501 455749 37627 1357 32246 1410 30789 1527 418122 559 2589 37068 13158 255 2098 1399 748 406107 227889 36726 1457 401 1241 29262 8141 22752 1271 2450 20873 232 1016 268 1364 2299 232 384 1056 12983 20641 12015 207016 2305 227 204711 551 364 237 6510 820 9171 461 204656 57 613 298 527
is_linear=0
shrinkage=1


Tree=1
num_leaves=64
num_cat=0
split_feature=97 111 94 94 85 109 111 37 41 81 41 94 50 109 87 81 86 97 109 94 111 53 91 94 20 9 53 76 86 105 23 96 23 50 7 105 65 94 45 1 53 34 27 98 45 111 91 105 85 45 112 81 7 50 81 7 98 98 81 37 79 112 50
split_gain=15375.5 8133.6 7183.57 6295.2 3854.75 3408.62 2580.58 2575.69 1101.65 894.538 759.84 750.714 746.271 738.003 571.473 570.919 725.997 928.592 547.907 930.568 653.898 527.044 649.839 512.871 502.665 477.44 436.56 757.365 427.939 416.771 416.243 397.948 393.92 388.873 434.205 364.146 344.485 343.298 333.44 341.87 327.657 316.862 313.939 310.729 300.283 297.074 312.201 296.58 294.012 292.865 421.605 297.316 292.52 282.123 282.048 277.294 336.805 322.319 276.861 271.391 270.989 265.458 264.385
threshold=1.5000000000000002 1.0000000180025095e-35 2.5000000000000004 4.5000000000000009 67.974998474121108 21.500000000000004 1.0000000180025095e-35 1.0000000180025095e-35 1.0000000180025095e-35 2.5000000000000004 1.0000000180025095e-35 2.5000000000000004 1.5000000000000002 1.5000000000000002 1.0000000180025095e-35 1.5000000000000002 1.5000000000000002 1.0000000180025095e-35 1.5000000000000002 8.5000000000000018 2.5000000000000004 123.50000000000001 2.5000000000000004 2.5000000000000004 1.5000000000000002 1.0000000180025095e-35 122.50000000000001 8.5000000000000018 6.5000000000000009 177.50000000000003 1.0000000180025095e-35 3164.974975585938 1.5000000000000002 1.5000000000000002 432.23500061035162 581.50000000000011 1.0000000180025095e-35 2.5000000000000004 152.50000000000003 3.5000000000000004 495.00000000000006 1.5000000000000002 24.545450210571289 370.50500000000005 149.50000000000003 1.5000000000000002 2.5000000000000004 551.50000000000011 299.94999694824224 159.50000000000003 0.53615456819534313 1.5000000000000002 58.960000991821296 1.5000000000000002 7.5000000000000009 374.97500610351568 863.02500000000009 994.47500000000014 2.5000000000000004 3.5000000000000004 2.5000000000000004 0.55180782079696666 1.5000000000000002
decision_type=2 2 2 2 2 2 2 2 2 2 2 2 2 2 2 2 2 2 2 2 2 2 2 2 2 2 2 2 2 2 2 2 2 2 2 2 2 2 2 2 2 2 2 2 2 2 2 2 2 2 2 2 2 2 2 2 2 2 2 2 2 2 2
left_child=1 2 7 6 10 18 11 12 26 59 25 41 14 23 44 -9 17 40 -5 20 -20 22 -15 -8 35 36 27 -6 53 -14 -11 -29 -27 34 -28 -10 43 -34 39 48 -17 -2 -19 -3 -1 52 54 -48 -32 50 -46 -51 -30 -26 -47 -45 -57 -58 -13 -4 -7 -52 -12
right_child=3 4 9 5 8 60 13 15 24 30 62 58 29 21 -16 16 -18 42 19 -21 -22 -23 -24 -25 28 32 33 31 45 -31 38 -33 37 -35 -36 -37 -38 -39 -40 -41 -42 -43 -44 55 49 46 47 -49 -50 51 61 -53 -54 -55 -56 56 57 -59 -60 -61 -62 -63 -64
leaf_value=0.0045625276370512098 0.49448961060370683 -0.027738983774116391 0.43719491767132529 0.47214295101241688 0.034250181627073974 0.075336044906482699 0.088697113141891396 0.027891118108005715 0.082706105022427007 0.26437971837130364 0.089417626280480764 0.265102788421335 0.35452327980533244 0.087590975229574361 0.10697815221262513 0.075727708635239102 0.063218490673959252 0.80426822323340719 0.35750219171481601 0.39207708286467524 0.047557105270648249 -0.0085659533529441109 1.0769711983781636 0.35535448745458642 0.33730501323651274 0.0062948628172587911 0.083674246013125897 1.3823553772657566 1.0892877995982253 0.10052433851773163 1.1639613889462506 0.4371108978069822 0.0066073497013326363 0.017144327703955565 0.46367780138026621 0.38330466070878794 -0.042074104376081015 0.38373114968236371 0.65250982905049926 0.61094711547121738 1.1446268639308996 0.059965729595368424 0.017291909035825156 0.012940489958280038 0.14155163505640417 0.31753847994024503 -0.038194802616995274 0.51308857218054271 0.18821924129843151 0.35746732753780147 1.4193143168999343 0.64333866343437585 0.43823478116141157 0.087433942172915197 1.0009388005473121 0.054856561183697021 0.83428994000524492 0.045127485747466792 0.9870182959370194 0.031128673485490428 0.53266662905637685 0.34254489094034846 0.0092153214837061345
leaf_weight=4.4374808296561232 11.252578370273119 7342.1031669601798 28.086448684334755 111.85683189705014 7.5456136837601644 130.39485125988722 73.187216311693192 687.61958530917764 138.3258093893528 4.5731371678411952 139.4072995595634 1.5767934732139099 20.038291487842798 5.0170130915939799 20.445316456258297 15.290086761116982 57.336554862558842 10.451837409287693 30.055246714502573 220.58040077611804 39.226387679576874 369.96818920597434 2.4800940714776516 23.927007615566254 15.660242453217505 508.57022783532739 185.70724734291434 1.987126477062702 1.8836757093668008 83.229752633720636 10.648290283977985 2.532573975622654 11.068654712289574 576.45814814418554 7.8343837372958651 10.866384346038101 5535.5503486022353 13.268247619271277 25.551137998700142 5.4045389257371417 0.75221575796604234 6.6897477619349948 1.442097384482621 286.22671921178699 1.5518195815384377 6.736266642808916 10.650120567530392 3.1646078899502745 0.83238073810935098 58.072200678288937 2.3112206533551221 10.784359537065027 20.519018553197384 40.540932513773441 1.9459037370979784 9.8051858730614168 3.4966365061700335 2.0538880527019501 8.4204277060925943 4.8210170045495024 3.321666818112134 0.76080655679106701 390.83254308998585
leaf_count=134 299 220012 487 1284 215 3127 1958 20502 3723 109 4022 43 538 141 563 455 1643 295 443 2403 808 10353 67 613 402 14601 5094 57 49 2306 289 25 295 16423 159 209 170440 274 424 73 22 172 40 8281 47 138 263 37 22 1467 70 288 376 1135 46 241 84 50 216 141 49 23 11661
internal_value=-0.000532717 -0.0123939 0.121915 0.186068 -0.0216654 0.305359 0.0589628 0.0845426 0.0716293 0.577643 -0.0284279 0.525941 0.243691 0.0314707 0.342252 0.0430243 0.165054 0.374063 0.378143 0.341869 0.182015 -0.000155499 0.414885 0.154396 0.16293 -0.0306989 0.0424094 0.340842 0.249005 0.149811 0.717603 0.852696 0.0156987 0.0377332 0.0990564 0.1046 -0.032575 0.212212 0.766445 0.938855 0.125848 0.332479 0.70885 -0.0256958 0.403987 0.364095 0.235752 0.0880904 1.09322 0.428108 0.81331 0.402241 0.492977 0.15706 0.470707 0.0240455 0.231039 0.542272 0.873155 0.377705 0.0866966 1.15265 0.0303016
internal_weight=17367.1 16329.2 1054.44 1037.95 15274.7 535.435 502.519 974.524 1032.36 79.917 14242.4 27.9395 201.631 474.58 98.3632 772.892 85.2728 27.9362 401.719 289.862 69.2816 377.465 7.49711 97.1142 250.293 13712.1 782.065 12.0653 101.101 103.268 47.0095 4.5197 532.907 770 193.542 149.192 13179.2 24.3369 42.4363 16.8852 16.0423 17.9423 11.8939 7643.69 77.9179 44.8996 22.4969 13.8147 11.4807 73.4804 4.62385 68.8566 22.4027 56.2012 8.68217 301.582 15.3557 5.55052 9.99722 32.9075 133.717 3.07203 530.24
internal_count=510226 488250 29938 21976 458312 8114 13862 28393 28351 1545 429961 730 5436 13132 2592 22957 2455 812 4938 3654 1251 10561 208 2571 6378 414278 21973 297 2446 2844 917 82 15170 21676 5253 3932 399108 569 808 384 477 471 335 228668 2029 909 484 300 311 1895 140 1755 425 1537 184 8656 375 134 259 628 3176 93 15683
is_linear=0
shrinkage=0.05


Tree=2
num_leaves=64
num_cat=0
split_feature=97 111 94 19 94 109 37 109 41 50 86 23 94 109 91 24 1 87 111 94 37 97 69 111 1 1 109 105 24 94 65 65 28 94 98 20 53 86 111 6 40 6 62 37 98 8 9 6 105 6 109 76 70 34 46 11 8 53 86 73 13 8 90
split_gain=11774.2 6567.69 3730.49 3595.63 2984.26 1818.32 1558.49 915.615 846.595 769.062 503.402 450.269 579.145 658.544 401.713 576.933 435.219 400.563 398.262 1061.17 391.203 385.067 900.206 338.547 316.149 340.343 315.311 551.737 1049.78 321.104 846.81 310.435 309.105 304.921 274.755 282.822 316.251 266.122 265.06 251.813 249.986 248.02 243.307 241.027 578.474 222.383 218.64 215.59 270.046 209.991 205.208 323.849 205.306 355.15 202.996 203.144 202.875 192.519 189.855 338.05 177.988 978.961 177.922
threshold=1.5000000000000002 1.0000000180025095e-35 3.5000000000000004 170.85119628906253 2.5000000000000004 21.500000000000004 1.0000000180025095e-35 1.5000000000000002 1.0000000180025095e-35 1.5000000000000002 7.5000000000000009 1.5000000000000002 2.5000000000000004 1.5000000000000002 8.5000000000000018 225.50000000000003 1.5000000000000002 1.0000000180025095e-35 1.5000000000000002 8.5000000000000018 3.5000000000000004 1.0000000180025095e-35 2682068.0000000005 1.0000000180025095e-35 1.5000000000000002 2.5000000000000004 7.5000000000000009 122.50000000000001 127.50000000000001 17.500000000000004 3.5000000000000004 1.0000000180025095e-35 3.5000000000000004 1.5000000000000002 370.50500000000005 10.500000000000002 327.50000000000006 2.5000000000000004 2.5000000000000004 17187.500000000004 1.5000000000000002 15360.500000000002 169.0350036621094 1.5000000000000002 129.96000000000001 27.059700012207035 1.0000000180025095e-35 9480.5000000000018 249.50000000000003 17401.000000000004 20.500000000000004 7.5000000000000009 309.50000000000006 12.500000000000002 432.25000000000006 491.30999755859381 184.95999908447268 466.00000000000006 3.5000000000000004 5.5000000000000009 2.5000000000000004 2597.474975585938 1647.0000000000002
decision_type=2 2 2 2 2 2 2 2 2 2 2 2 2 2 2 2 2 2 2 2 2 2 2 2 2 2 2 2 2 2 2 2 2 2 2 2 2 2 2 2 2 2 2 2 2 2 2 2 2 2 2 2 2 2 2 2 2 2 2 2 2 2 2
left_child=1 4 7 8 6 18 17 23 11 20 50 31 -13 -14 -15 -16 -17 41 -4 38 -5 -8 -23 -2 39 47 37 28 -28 -29 -31 34 -9 43 35 62 -37 -22 -20 -12 -35 -1 -10 44 -24 46 -7 48 -26 -41 51 52 58 -54 -36 -56 -50 -32 -11 -60 -52 -62 -3
right_child=2 3 5 9 -6 45 21 32 42 10 24 12 13 14 15 16 -18 -19 19 -21 26 22 33 -25 25 -27 27 29 -30 30 57 -33 -34 40 54 36 -38 -39 -40 49 -42 -43 -44 -45 -46 -47 -48 -49 56 -51 60 -53 53 -55 55 -57 -58 -59 59 -61 61 -63 -64
leaf_value=0.24109800040236362 0.27920807041598478 -0.028033040795438807 0.31339304770714382 -0.018908367129839451 0.3246812217206127 0.07192493518100411 0.010181532984524113 -0.011621933966480737 0.011074331350853445 0.0081969577174627398 -0.01558824836287305 -0.014948366900478833 0.36314671458568526 0.027781321560826851 -0.05204865220728843 1.2791957374209488 -0.05184367063521348 0.060766239043730554 0.20420022743322216 0.27603709922106157 0.098321699662926657 -0.0069440156685378774 0.12062823558461103 0.10079882804139267 -0.052385828886160425 0.083888815856509924 1.2379742545625696 0.02131371958853254 0.072440913548145955 1.2534980239885458 0.029206600020496659 -0.041122351631363567 0.39231549260339438 0.37071988175546877 0.0085460106995668816 0.047139712639056114 0.79490022330368582 0.24274604877191305 0.023226457876289023 0.95606299840203723 0.055692552957440113 0.10234178098419369 0.083141434024222194 0.067302247027651418 0.49497177404922665 -0.036812735258734158 0.25913434302110977 0.25255654305389097 0.43642224510864946 0.14560010070565177 -0.020233075852892059 0.30307682669940411 0.15880201765169477 1.30813115489646 0.44537290416303144 0.08666335534318656 0.96647688091291983 0.85713313524811996 0.072877209196239606 1.0787679663030456 -0.044411100906241029 1.3618062402024025 0.18009093396769402
leaf_weight=160.33495154604316 36.028960760682821 7134.7265419512987 213.85903378203511 35.903114169836044 132.28583240136504 99.226003371179104 478.60659995302558 328.49572522938251 430.4708131365478 282.06180438399315 29.723836600780487 286.19770415872335 22.287539504468441 79.131266783922911 2.9513132125139228 2.2909503057599072 0.83906827494502056 54.862042877823114 29.78529441729188 283.15042040124536 44.530302133411169 155.4593642577529 48.983768533915281 101.50114692747593 1.5662616044282929 23.701668702065945 2.9456175155937654 83.671090520918369 5.6138403303921223 1.9531587585806836 7.9805110953748208 5459.8975549228489 4.8053412809967986 25.576217800378799 287.76492639631033 4.0216653123497954 2.1807219162583351 112.42222102731466 63.085729971528053 1.239210341125726 8.3543680161237699 40.299423865973949 160.89023400470614 77.594553485512733 13.074706207960842 38.697840884327888 18.504487317055464 22.496038042008877 4.0789407454431057 2.251088410615921 222.6180653385818 11.932926908135412 17.798731375485662 0.69852297380566497 4.9081644751131561 20.153074223548174 3.2384411990642548 0.76988560706377018 143.25739499554038 0.84015299007296462 6.6472728699445707 1.5208188220858572 10.283759001642464
leaf_count=3170 599 219116 1947 870 1545 2202 13848 9238 12431 8020 684 8581 419 2040 81 61 25 1363 526 2304 1138 4364 1409 2371 37 512 77 2120 140 51 201 174442 71 504 8167 103 38 2134 1405 27 228 903 4379 2230 374 983 330 311 75 39 6323 139 508 20 91 530 73 20 3787 23 186 43 250
internal_value=-0.000774413 -0.012059 0.149198 -0.021059 0.100724 0.218726 0.0728569 0.0389911 -0.0278578 0.0671992 0.0410406 -0.0304572 0.0222183 0.121167 0.0578768 0.449484 0.922382 0.18049 0.258916 0.227932 0.135797 0.0388077 0.0804457 0.147537 0.153428 0.226897 0.157169 0.0891626 0.473543 0.0543006 0.312163 -0.0320618 -0.0057982 0.158711 -0.0254341 -0.0274405 0.310048 0.20177 0.0812678 0.0315883 0.293154 0.213227 0.0306815 0.126046 0.199496 0.0671707 0.10135 0.334914 0.543467 0.43335 0.0266041 0.0460269 0.0391286 0.202205 0.0204322 0.156915 0.671008 0.10205 0.0320504 0.078742 -0.0118222 0.217413 -0.0277335
internal_weight=17393 16175.9 1217.14 14980.5 1195.43 746.309 1063.15 470.831 13909 1071.46 775.671 13317.6 393.698 107.5 85.2126 6.08133 3.13002 255.496 589.88 376.021 295.79 807.65 329.043 137.53 88.2955 55.0814 259.887 102.934 8.55946 94.3746 10.7036 12923.9 333.301 173.584 7464.04 7151.21 6.20239 156.953 92.871 33.2141 33.9306 200.634 591.361 139.653 62.0585 156.428 117.73 31.3797 8.88364 3.4903 687.376 456.59 444.657 18.4973 312.826 25.0612 7.31738 8.7504 426.159 144.098 230.786 8.16809 7145.01
internal_count=510226 488250 21976 458312 29938 9697 28393 12279 430754 27558 20807 413944 11207 2626 2207 167 86 5436 6182 4235 6751 22957 9109 2970 1758 1008 5881 2609 217 2392 272 402737 9309 4745 228295 219507 141 3272 1931 750 732 4073 16810 4013 1783 3515 2532 496 185 66 19049 12497 12358 528 8788 621 148 221 11830 3810 6552 229 219366
is_linear=0
shrinkage=0.05


Tree=3
num_leaves=64
num_cat=0
split_feature=97 111 19 94 94 109 37 42 37 109 41 22 90 41 18 50 50 53 34 53 68 86 90 70 94 111 67 98 34 50 53 47 37 6 111 98 65 98 37 86 34 88 53 76 98 62 12 8 7 94 37 76 67 8 98 94 109 76 34 6 0 34 3
split_gain=9544.52 5544.85 3186.38 2517.62 1911.38 1135.61 733.218 725.883 709.945 697.684 500.538 371.872 319.304 291.618 291.09 249.345 244.972 288.21 368.012 282.34 265.122 224.192 224.076 218.929 215.54 755.908 213.253 204.917 204.715 203.552 197.858 197.556 190.701 190.096 190.033 180.363 179.102 197.951 272.922 165.602 219.056 165.305 199.019 161.408 153.404 152.193 148.36 146.066 145.697 144.448 152.834 143.242 143.035 141.015 139.507 137.465 136.927 219.872 182.971 259.487 129.21 128.448 127.515
threshold=1.5000000000000002 1.0000000180025095e-35 28.97500038146973 3.5000000000000004 1.5000000000000002 25.500000000000004 1.0000000180025095e-35 154.25000000000003 3.5000000000000004 1.5000000000000002 1.0000000180025095e-35 1.0000000180025095e-35 743.47500610351574 1.5000000000000002 35.95790100097657 1.5000000000000002 1.5000000000000002 228.50000000000003 6.5000000000000009 217.00000000000003 1.5000000000000002 2.5000000000000004 2206.204956054688 4.5000000000000009 5.5000000000000009 1.5000000000000002 2.5000000000000004 75.003000000000014 6.5000000000000009 1.5000000000000002 122.50000000000001 135.97499847412112 1.5000000000000002 12686.500000000002 1.0000000180025095e-35 166.99500000000003 1.0000000180025095e-35 129.96000000000001 1.5000000000000002 5.5000000000000009 1.5000000000000002 7.5000000000000009 296.50000000000006 8.5000000000000018 54.007500000000007 323.86000061035162 7.9877500534057617 27.059700012207035 276.49499511718756 3.5000000000000004 1.0000000180025095e-35 1.5000000000000002 3.5000000000000004 527.22500610351574 863.02500000000009 3.5000000000000004 8.5000000000000018 3.5000000000000004 9.5000000000000018 10112.500000000002 1.5000000000000002 2.5000000000000004 1.5000000000000002
decision_type=2 2 2 2 2 2 2 2 2 2 2 2 2 2 2 2 2 2 2 2 2 2 2 2 2 2 2 2 2 2 2 2 2 2 2 2 2 2 2 2 2 2 2 2 2 2 2 2 2 2 2 2 2 2 2 2 2 2 2 2 2 2 2
left_child=1 4 10 9 6 24 29 16 14 34 11 26 13 45 -6 46 17 18 19 -4 -21 -11 -17 -23 25 -5 35 -12 -25 -1 43 -20 -28 -24 61 -3 37 -8 -39 52 -41 -34 53 -18 -33 -9 54 -7 -14 50 -16 -40 -32 -43 -13 -54 57 58 -47 -60 -31 -2 -15
right_child=3 2 7 5 8 47 36 12 -10 21 27 15 48 62 49 22 30 -19 31 20 -22 23 33 28 -26 -27 32 -29 -30 60 39 44 41 -35 -36 -37 -38 38 51 40 -42 42 -44 -45 -46 56 -48 -49 -50 -51 -52 -53 55 -55 -56 -57 -58 -59 59 -61 -62 -63 -64
leaf_value=0.17073607673224966 0.24158960619465095 -0.038248326220663514 0.049261356872763153 0.25728088297830604 0.25965781933189797 0.080342810085498803 0.01079126500264053 0.0087775023064588838 0.017544003343448539 -0.021543077359309892 -0.0065475425191201149 0.013170857904233125 0.55761799207993767 0.18840337901008586 0.20937283910917881 -0.024023855462937147 0.019095535538568367 0.030888250292118193 0.2725323635334464 0.21034289319568478 0.85460963140081803 0.0052941436093559809 -0.052248312959215927 0.19001589968241117 0.21709192369173055 0.023247811337063426 0.37000506162027214 0.061417304087953463 0.8893232198086507 0.072113507740742197 0.0014563294318983616 1.0674425440334079 -0.012502999704683021 0.47828781893488581 0.087203041398990377 -0.022141147885981219 -0.037263919121331805 0.18678087890527351 0.041137236049725051 0.59377806032741043 0.065329897129409564 0.53414465733492289 -0.05189706326506776 0.2812261755687902 0.2598267835250993 0.078158888771295815 0.16996409218972464 -0.03538135587398334 0.22331634741187281 0.23934601188001081 0.060578129740266787 0.3025901860711242 0.09049653434419902 -0.051644242741070913 0.36308535946709863 0.52487334219298265 0.015430306283754622 0.41211684035747098 0.41206152250453432 -0.041727251195804477 0.49877966869991675 -0.0045024065481482703 0.086470437694906269
leaf_weight=126.18221232295036 39.40526682510972 8573.0136852189898 70.421973291784525 73.667331788688898 177.34750865027308 116.3556683845818 349.19083012267947 93.588991869240999 50.930434789508581 288.14156233146787 261.34010602533817 495.13452073931694 4.4956338554620769 83.540840201079845 27.526018474251032 1088.8358836509287 11.268333662301302 233.81419324874878 14.938743118196728 10.773701291531323 1.8746677674353112 25.266462668776512 2.8662445843219748 16.99134157970548 578.93858053162694 64.898852031677961 4.7181448750197879 192.66517179459333 1.1152235008776177 113.31969578936696 962.80882751196623 1.5179385133087628 36.76486137136817 4.108861118555069 111.18380767852068 2179.9332028888166 96.163975857198238 40.747790023684502 236.87989930063486 2.0124431252479544 76.803432339802384 4.5748560354113561 4.0705964714288712 12.264216221868992 0.95975255221128453 112.64544887468219 15.978703983128069 35.612757954746485 11.850671984255312 35.061968240886927 46.262797553092241 5.3571857437491408 8.2918208204209787 1.3248916082084177 2.8649567104876033 2.3340806663036338 48.58738673850894 5.8914778232574454 9.8518845885992032 4.6311372220516196 1.8026557154953469 6.1268437169492236 48.489480890333652
leaf_count=2112 491 278574 1776 701 2062 2379 9863 2519 1331 8275 7502 14624 75 1359 293 33923 321 5806 217 197 47 663 77 343 4277 1404 94 5317 28 2399 27630 34 1090 48 2371 69182 2837 952 6635 53 1712 54 119 84 20 2583 282 936 184 256 1033 143 184 43 42 47 1176 102 156 104 22 108 955
internal_value=-0.000916031 -0.0117109 -0.020484 0.126366 0.0869906 0.177387 0.0513344 0.0411801 0.189544 0.035505 -0.0292708 -0.0311567 0.0985788 0.0898812 0.220153 -0.00873729 0.0239381 0.0613233 0.13214 0.0883271 0.305832 -0.00559032 -0.0222142 0.100389 0.203685 0.147669 -0.034497 0.0222945 0.233088 0.126872 0.0123206 0.341113 0.0670515 0.260277 0.122437 -0.0349829 0.0263082 0.0359785 0.0670584 0.00911394 0.078823 0.0364669 0.21704 0.155707 0.754606 0.060574 0.0199957 0.0532236 0.315257 0.155788 0.116084 0.0469194 0.00346982 0.402596 0.0151839 0.185912 0.0872667 0.113506 0.0996675 0.266957 0.0787945 0.208475 0.150967
internal_weight=17366.3 16008.6 14701.9 1357.7 1306.77 869.473 969.644 1833.66 337.129 488.231 12868.2 12414.2 423.573 407.227 286.198 1609.79 1410.08 334.301 100.487 83.0703 12.6484 331.515 1095.81 43.373 717.505 138.566 10804.4 454.005 18.1066 241.305 1075.78 17.4164 51.4534 6.97511 156.716 10752.9 728.34 632.176 282.985 1052.25 78.8159 46.7352 9.97034 23.5325 2.47769 275.196 513.978 151.968 16.3463 108.851 73.7888 242.237 973.435 5.89975 497.999 10.6259 181.607 133.02 127.128 14.483 115.122 45.5321 132.03
internal_count=510226 488250 458312 21976 29938 9697 24963 47341 4975 12279 410971 398152 9213 8954 3644 48996 38128 8097 2291 2020 244 9309 34048 1034 6382 2105 349156 12819 371 4533 30031 271 1400 125 2970 347756 20430 17593 7730 29626 1765 1306 216 405 54 6640 14948 3315 259 1582 1326 6778 27861 97 14666 231 4121 2945 2843 260 2421 599 2314
is_linear=0
shrinkage=0.05


Tree=4
num_leaves=64
num_cat=0
split_feature=97 111 19 94 94 109 42 109 37 14 109 37 37 94 109 62 81 86 28 22 111 70 1 65 98 37 24 76 98 109 87 65 1 98 45 109 94 111 87 109 22 90 53 98 109 94 24 20 70 47 23 105 105 112 112 34 70 70 51 82 92 9 76
split_gain=7946.69 4765.75 2888.92 1839.94 1347.9 800.481 593.078 549.916 549.895 481.043 488.211 465.775 427.338 433.066 350.887 345.269 225.494 201.482 198.996 182.329 198.356 170.488 164.73 157.766 159.289 184.692 152.143 198.449 209.187 154.805 151.924 151.5 245.051 152.522 150.653 147.972 358.365 297.507 147.316 145.621 179.197 144.211 143.861 144.978 143.545 141.303 135.49 133.388 129.919 125.296 125.244 123.773 1439.42 1001.23 830.648 122.724 119.895 118.795 128.294 118.744 117.555 116.315 115.795
threshold=1.5000000000000002 1.0000000180025095e-35 7.7925999164581299 3.5000000000000004 1.5000000000000002 21.500000000000004 67.969997406005874 1.5000000000000002 1.0000000180025095e-35 67.95999908447267 1.5000000000000002 3.5000000000000004 1.0000000180025095e-35 3.5000000000000004 2.5000000000000004 268.26554870605474 1.5000000000000002 2.5000000000000004 2.5000000000000004 60.000000000000007 36.500000000000007 2.5000000000000004 1.5000000000000002 1.0000000180025095e-35 129.96000000000001 1.5000000000000002 225.50000000000003 3.5000000000000004 390.03000000000003 11.500000000000002 1.0000000180025095e-35 1.0000000180025095e-35 3.5000000000000004 335.00500000000005 159.50000000000003 1.5000000000000002 8.5000000000000018 2.5000000000000004 1.5000000000000002 3.5000000000000004 1.5000000000000002 597.50000000000011 122.50000000000001 250.03000000000003 85.500000000000014 1.5000000000000002 115.50000000000001 1.0000000180025095e-35 508.50000000000006 645.50000000000011 1.5000000000000002 361.50000000000006 360.50000000000006 0.54756012558937084 0.55488458275794994 6.5000000000000009 1.0000000180025095e-35 38.500000000000007 2.5000000000000004 83.000000000000014 1.0000000180025095e-35 799.50000000000011 8.5000000000000018
decision_type=2 2 2 2 2 2 2 2 2 2 2 2 2 2 2 2 2 2 2 2 2 2 2 2 2 2 2 2 2 2 2 2 2 2 2 2 2 2 2 2 2 2 2 2 2 2 2 2 2 2 2 2 2 2 2 2 2 2 2 2 2 2 2
left_child=1 4 9 7 8 35 42 22 30 12 -11 16 13 51 -15 46 34 -17 -9 -7 -21 -12 -2 24 -10 -26 29 28 49 -19 -1 32 33 -14 59 -5 37 -37 -18 -34 -41 -23 62 -44 60 56 -8 -39 -45 -28 -38 52 -3 -54 -55 -22 -30 58 -24 -6 -29 -50 -4
right_child=3 2 6 5 11 19 15 18 23 10 21 -13 31 14 -16 17 38 26 -20 20 55 41 57 -25 25 -27 27 44 45 -31 -32 -33 39 -35 -36 36 50 47 -40 40 -42 -43 43 48 -46 -47 -48 -49 61 -51 -52 -53 53 54 -56 -57 -58 -59 -60 -61 -62 -63 -64
leaf_value=0.12660877761816899 0.034891827705267629 0.00016824654117865841 0.0085534438364791698 0.2031047616092026 0.44296130550961355 0.0026547047294458474 0.17554018651441636 -0.013084603881906111 0.01014714431911902 0.10986129932968197 0.039742780497053737 0.016393914989209137 -0.032702151761645835 0.2894638835697782 -0.0012680262159396986 0.010754516799057558 0.21494478140011786 0.095488168982730159 0.19218882701480466 0.24573590481753885 0.054314200854485385 -0.01934250840543043 0.19002643285707088 -0.036683372231461391 0.1493866239707031 0.042574057287002781 0.11180346593736429 0.32267489030834806 0.060496177327050295 -0.024684075388741979 0.033256162903928042 -0.041927503873710352 0.26460614998617044 0.0054312691093420171 0.17959869558697081 0.16000733374769874 -0.061943930690922702 0.18328883877521485 0.06528117336996736 0.028870840636332065 0.85907322083128368 0.099964168665017242 0.0057881995312644178 0.047046426774681654 -0.019833453811200625 0.069638989651956515 0.016952916176852784 -0.013150353971653112 -0.0050896816499084903 -0.0063280939550049015 0.18404946473723049 -0.020641654974310534 -0.051694229346879145 1.5100682260936384 -0.0098812352348131068 0.5104683869601695 0.35131612821074976 -0.020491307898520775 0.069448891462400422 0.0402317622149247 0.071227810234832989 0.36742352100044923 0.22520866254339938
leaf_weight=214.52038336545229 57.226516470313072 356.94113566912711 10.742718579247594 252.21712145209312 1.9001117721199978 87.99492172524333 14.230100613087414 317.91001798957586 352.69584058597684 95.243890246376395 159.63117410615087 51.756169185042381 5088.1505258511752 22.390137674286962 19.344874797388911 60.396484972909093 220.26440796256065 163.54818189516664 12.261804830282925 19.377991579473019 66.559122286736965 927.89964997954667 74.774664297699928 92.885274969041348 48.173898670822382 253.10406928882003 135.94180826842785 26.746790114790201 4.3583091311156776 32.050769820809364 54.694333478808403 4655.8713833782822 8.4357385933399183 276.4650653488934 45.725497368723154 71.725871704518795 5.2425059825181952 10.0963221155107 17.768432769924402 48.946640074253082 0.65873323380947013 26.039159901440144 1038.3013526555151 131.7774851359427 4.5889243092387906 9.6679336950182897 251.56179642491043 59.980631392449141 3.1820808574557287 26.885643772780895 397.5038690418005 771.08112235926092 2.8375575374811879 3.6177031472325325 1.1960515677928922 1.5079052411019791 18.967841926962137 10.680906396359203 31.292600698769093 49.824558082967997 5.625958237797021 6.1369333304464817 14.480006001889706
leaf_count=3374 1070 10821 299 1586 29 1941 316 9129 9863 2519 4438 1331 166546 302 435 1562 1960 3131 180 176 1369 30355 1142 2837 952 6778 2466 305 73 733 1159 159756 142 7947 406 788 38 177 261 1472 20 679 28559 3367 108 168 6695 1228 83 580 2365 23679 90 114 38 29 246 209 549 988 106 78 84
internal_value=-0.000984836 -0.0113336 -0.0198915 0.109959 0.0766289 0.150154 0.0365501 0.0324452 0.0463773 -0.0287629 0.00121018 0.156006 -0.0319818 -0.00347819 0.154705 0.0713087 0.177544 0.0962497 -0.00546123 0.0534674 0.1046 -0.00808278 0.104385 0.0242934 0.032954 0.0596532 0.108303 0.135618 0.115561 0.0757968 0.107643 -0.0353117 -0.0296314 -0.0307369 0.113478 0.171444 0.156779 0.0884217 0.203773 0.0725551 0.0398955 -0.0160859 0.0147774 0.0122505 0.241878 0.230364 0.0254434 0.0151516 0.0598053 0.0922979 0.180847 -0.00929128 0.0147138 0.693276 1.13241 0.0644195 0.296979 0.138448 0.154453 0.0550261 0.278977 0.240225 0.132932
internal_weight=17303.6 15827.3 14423.9 1476.35 1403.31 972.206 1959.19 504.147 1016.07 12464.8 1208.81 387.239 11255.9 1177.41 41.735 754.571 335.483 488.779 330.172 175.44 87.445 1113.57 173.975 746.859 653.974 301.278 428.382 232.783 195.822 195.599 269.215 10078.5 5422.66 5364.62 97.4502 796.766 544.549 141.803 238.033 58.0411 49.6054 953.939 1204.62 1179.4 36.9617 32.9941 265.792 70.077 141.096 162.827 402.746 1135.67 364.592 7.65131 4.81375 68.067 23.3262 116.748 106.067 51.7247 32.3727 9.31901 25.2227
internal_count=510226 488250 458312 21976 29938 9697 48959 12279 24963 409353 37991 4975 371362 35479 737 16489 3644 9478 9309 3515 1574 35472 2970 20430 17593 7730 7916 4052 3533 3864 4533 335883 176127 174493 1423 6182 4596 2193 2221 1634 1492 31034 32470 32087 519 487 7011 1405 3528 3046 2403 34742 11063 242 152 1398 319 1900 1691 1017 411 161 383
is_linear=0
shrinkage=0.05


Tree=5
num_leaves=64
num_cat=0
split_feature=67 109 62 94 97 69 41 109 94 109 37 109 94 19 87 109 41 50 72 81 94 47 50 65 1 68 109 87 50 47 109 6 109 94 94 70 37 6 69 19 23 8 70 70 19 50 69 24 94 94 8 89 86 67 56 1 6 70 6 86 8 6 90
split_gain=6876.68 3463.87 2630.47 2242.75 875.022 797.879 688.932 645.815 746.643 400.383 389.369 359.983 337.611 317.377 279.379 266.633 263.241 253.825 219.209 214.429 217.842 192.242 192.055 159.576 210.411 182.183 171.438 156.216 149.188 142.089 171.836 138.556 170.258 159.372 199.159 137.505 130.715 129.407 125.393 121.991 121.398 121.196 140.588 153.641 117.798 117.496 150.644 133.452 115.137 198.669 128.303 120.885 143.767 114.152 150.953 110.433 174.081 225.012 201.692 147.695 142.629 109.716 156.308
threshold=1.5000000000000002 1.0000000180025095e-35 118.00999832153322 2.5000000000000004 1.0000000180025095e-35 2407188.0000000005 1.0000000180025095e-35 1.5000000000000002 8.5000000000000018 182.50000000000003 1.0000000180025095e-35 1.5000000000000002 2.5000000000000004 334.25000000000006 1.0000000180025095e-35 2.5000000000000004 1.0000000180025095e-35 1.5000000000000002 1.0000000180025095e-35 1.5000000000000002 1.0000000180025095e-35 250.25000000000003 1.5000000000000002 1.0000000180025095e-35 3.5000000000000004 2.5000000000000004 2.5000000000000004 1.5000000000000002 1.5000000000000002 67.969997406005874 1.5000000000000002 16876.500000000004 8.5000000000000018 4.5000000000000009 5.5000000000000009 245.50000000000003 1.0000000180025095e-35 14003.500000000002 1614538.5000000002 213.01409912109378 14.500000000000002 120.90024948120119 197.50000000000003 153.50000000000003 25.965300559997562 1.5000000000000002 3168036.0000000005 194.50000000000003 1.5000000000000002 13.500000000000002 175.92499542236331 9.5000000000000018 4.5000000000000009 3.5000000000000004 1.5000000000000002 1.5000000000000002 10617.000000000002 313.50000000000006 9501.0000000000018 10.500000000000002 661.21499633789074 13532.500000000002 528.50000000000011
decision_type=2 2 2 2 2 2 2 2 2 2 2 2 2 2 2 2 2 2 2 2 2 2 2 2 2 2 2 2 2 2 2 2 2 2 2 2 2 2 2 2 2 2 2 2 2 2 2 2 2 2 2 2 2 2 2 2 2 2 2 2 2 2 2
left_child=1 4 10 11 36 38 13 -5 35 -10 12 27 28 29 19 -14 23 41 45 20 -7 -13 -18 24 44 26 -26 -2 -3 -4 -31 32 55 -33 -35 37 -1 40 -6 -38 53 -15 43 48 -12 46 -8 -47 51 50 -50 52 -43 -9 -55 -19 57 58 59 -57 -60 -49 -63
right_child=3 2 6 7 5 14 18 8 9 -11 16 21 15 17 -16 -17 22 31 -20 -21 -22 -23 -24 -25 25 -27 -28 -29 -30 30 -32 33 -34 34 -36 -37 39 -39 -40 -41 -42 42 -44 -45 -46 47 -48 61 49 -51 -52 -53 -54 54 -56 56 -58 -59 60 -61 -62 62 -64
leaf_value=0.15118501861630518 0.089633484727249579 0.012819858005366861 -0.011831292355630466 0.1794369831891594 0.0631985675847032 0.36621442379770514 0.041921310395356903 0.039279007909956178 0.15504667274912898 0.045743646015030892 -0.030942959290198271 -0.023698995060517723 0.14785209548382514 0.026571786090274649 0.065316368947201983 -0.043481460715389691 0.094205842106855772 0.018633949450536584 0.018632104566472265 0.19537059110838809 0.11468662362468006 0.16807636443483631 -0.0061377246149568083 -0.040647181862103948 0.29955026023175274 0.75033627343881415 0.023790767661657674 -0.0021616638720633402 -0.025105671885762133 0.12846806041901596 0.014130092004745949 -0.00012296333856427958 -0.021484742167689475 0.23865209240867138 -0.051965466431491691 -0.031379212565729529 0.0010950529290373102 -0.0033956005515648627 -0.010821788707603206 0.08900007097485696 -0.040070956718702387 0.28989591825873767 -0.040008930953473659 0.31540500318290959 0.0018131654840864413 0.015028371349444444 0.16050686139773418 0.072519338124949317 0.31961828902340694 0.28908198458689838 0.0080655418180302554 -0.034698762623765235 0.088768849878855569 0.10286912451990318 0.31902913481221312 0.04331435283373819 -0.016871545564330397 0.84611081020770573 0.68493571086542149 0.33187402420314238 0.056589387473768772 0.14014016748582808 0.68201324112462514
leaf_weight=16.585663642734289 153.48991112411022 437.20236829854548 832.08775973506272 386.16169238649309 94.169808857142925 8.8597073219716531 35.351227063685656 72.853663520887494 486.23197722248733 101.22387595847249 5135.2858898304403 396.53788436017931 62.484199956059456 44.710716336965561 143.93482968956232 25.696550631895661 59.036057464778423 86.735863216221333 119.06129009276628 145.26409609988332 303.15764559060335 13.513144716620443 248.0181104131043 4655.4322882723063 6.1739868298172942 0.93501093983650108 64.703595124185085 66.396510940045118 637.26682851836085 36.2730393987149 349.27945927530527 24.957182850688696 182.34599065408111 24.351344622671604 7.7781525254249564 53.13555627129972 465.5380644723773 68.241810470819473 145.79996768757701 43.12333357706666 20.380355089902878 23.484172526746988 11.97005285695195 11.261663116514681 289.96595857292414 67.266393460333347 110.47111888229847 146.33616784960032 3.5775783769786349 8.9365632496774179 43.301095947623253 5.6222884617745867 14.292404990643261 107.66497788578272 8.7316504754126054 20.936955600976955 16.948218911886215 1.2243687398731697 2.7771497480571261 5.6259633228182784 1.3383593857288358 60.048150885850191 1.3610041774809349
leaf_count=217 3170 12290 25915 2690 1916 87 609 1549 2964 2067 172365 12030 866 935 2808 601 1492 2138 2691 1103 5242 201 7183 165480 90 28 1873 1505 19922 837 10231 639 4928 180 215 1487 12993 1512 3218 1019 529 361 269 133 8218 1520 1639 3034 46 97 894 133 161 1693 101 533 420 29 53 46 24 978 29
internal_value=-0.00104208 -0.0122808 -0.019737 0.0877747 0.0636864 0.0953034 0.0291221 0.125184 0.102373 0.136213 -0.0294048 0.0102994 -0.00195505 0.013964 0.126068 0.092096 -0.0324561 0.045785 0.0785304 0.145191 0.121829 -0.0173791 0.0131549 -0.0338355 -0.0280668 0.0569585 0.0478116 0.0619152 -0.00967374 -0.000204819 0.0248871 0.0229447 0.0100665 0.0946672 0.168297 0.042316 0.0130515 0.0564082 0.0182255 0.00854747 0.0758764 0.0970278 0.122755 0.14039 -0.0291922 0.0954767 0.131759 0.0762385 0.120524 0.0730285 0.0318419 0.181608 0.213801 0.0883627 0.119085 0.0524987 0.112626 0.181421 0.154893 0.104431 0.480598 0.0960579 0.15215
internal_weight=17222.9 15288.3 13921.9 1934.56 1366.43 841.186 2299.71 1304.63 918.464 587.456 11622.2 629.937 1162.65 1759.82 601.216 88.1808 10459.6 542.176 539.895 457.281 312.017 410.051 307.054 10152.5 5497.06 71.8126 70.8776 219.886 1074.47 1217.64 385.552 375.02 317.933 57.0867 32.1295 331.008 525.247 277.872 239.97 508.661 209.631 167.157 122.446 110.476 5425.25 420.834 145.822 275.012 99.2141 55.8152 46.8787 43.3989 37.7766 189.25 116.397 135.587 48.851 31.9028 30.6784 26.5629 4.11551 207.745 61.4092
internal_count=510226 478728 450125 31498 28603 14374 59717 14592 11902 5031 390408 16906 33679 49217 9240 1467 356729 12234 10500 6432 5329 12231 8675 348054 182574 1991 1963 4675 32212 36983 11068 9205 8171 1034 395 6871 14229 5384 5134 14012 3872 3029 2094 1825 180583 7809 2248 5561 1692 1037 940 655 522 3343 1794 3243 1105 685 656 579 77 4041 1007
is_linear=0
shrinkage=0.05


Tree=6
num_leaves=64
num_cat=0
split_feature=97 109 19 97 81 69 65 86 109 42 22 109 37 81 109 86 30 87 37 98 22 109 7 37 20 109 81 90 62 81 79 13 28 37 62 45 24 81 92 98 20 20 24 53 23 98 65 98 19 42 15 53 0 24 69 76 109 62 36 24 19 69 11
split_gain=5831.34 3560.62 2418.61 749.492 658.5 653.827 443.714 458.394 443.118 396.345 269.222 483.44 294.38 241.793 318.917 239.956 209.17 176.494 176.319 178.019 174.724 173.857 173.654 161.144 159.766 172.135 155.308 147.872 147.325 139.783 139.087 127.858 126.338 121.619 119.107 115.421 114.947 111.813 111.065 106.499 103.758 102.262 99.7523 97.6022 97.3645 95.4226 94.8321 106.039 110.491 94.2017 92.7922 91.4684 91.383 85.2794 124.952 108.841 152.138 104.868 92.0334 84.5046 145.98 113.682 100.394
threshold=1.5000000000000002 1.0000000180025095e-35 7.7925999164581299 1.0000000180025095e-35 2.5000000000000004 2407188.0000000005 1.0000000180025095e-35 1.5000000000000002 21.500000000000004 67.969997406005874 13.500000000000002 2.5000000000000004 2.5000000000000004 3.5000000000000004 1.5000000000000002 2.5000000000000004 1.0000000180025095e-35 1.5000000000000002 1.0000000180025095e-35 335.00500000000005 60.000000000000007 1.5000000000000002 226.58499908447268 1.0000000180025095e-35 3.5000000000000004 6.5000000000000009 1.5000000000000002 1121.5000000000002 342.00999450683599 2.5000000000000004 1.5000000000000002 2.5000000000000004 2.5000000000000004 1.5000000000000002 59.045349121093757 178.00000000000003 115.50000000000001 3.5000000000000004 2.5000000000000004 250.03000000000003 71.500000000000014 1.5000000000000002 117.50000000000001 122.50000000000001 3.5000000000000004 768.06500000000017 1.0000000180025095e-35 159.95500000000001 204.07800292968753 68.047199249267592 75.132648468017592 122.50000000000001 1.5000000000000002 225.50000000000003 4720042.0000000009 3.5000000000000004 7.5000000000000009 1774.5000000000002 3.5000000000000004 115.50000000000001 340.23599243164068 7688815.5000000009 659.64999389648449
decision_type=2 2 2 2 2 2 2 2 2 2 2 2 2 2 2 2 2 2 2 2 2 2 2 2 2 2 2 2 2 2 2 2 2 2 2 2 2 2 2 2 2 2 2 2 2 2 2 2 2 2 2 2 2 2 2 2 2 2 2 2 2 2 2
left_child=1 3 6 23 21 29 7 13 10 39 11 17 24 18 -15 -11 26 -6 30 27 -10 -2 50 -1 -13 -26 -7 44 36 35 -3 -16 -23 -21 -14 -5 -17 46 45 43 -22 -29 -18 -4 -20 -24 47 48 -25 -38 -9 -49 -42 54 -30 56 57 -55 -56 60 -45 62 -62
right_child=4 2 9 5 8 16 -8 22 20 15 -12 12 34 14 31 28 42 -19 19 33 40 32 38 37 25 -27 -28 41 53 -31 -32 -33 -34 -35 -36 -37 49 -39 -40 -41 52 -43 -44 59 -46 -47 -48 51 -50 -51 -52 -53 -54 55 58 -57 -58 -59 -60 -61 61 -63 -64
leaf_value=0.14583041667571336 0.068361297063715437 -0.0095417941408671696 0.10722920835847023 -0.014750939723525243 0.14116171126801258 0.10663466047449062 -0.039216233521183155 -0.00037663233875376631 -0.0089437468617231709 -0.0014574297651977529 0.15267048424980739 -0.00054232032017641945 0.11722727145107617 0.15836723622216548 -0.0042025559215314061 0.16315327490918993 0.18831765373918322 0.061097154270808786 -0.033604787439429837 0.34836515102492072 0.17271310249943675 -0.024943685394701237 0.05034521342875159 -0.013263178466347933 0.11106388658849785 -0.013296091011367387 0.16165541780644788 -0.052038024598392477 0.010682112986188723 0.11974433064185758 0.12974007560052384 0.21707548979494332 0.16813195828366151 0.006046887801075141 0.30186624904455206 0.063453100938837756 0.34217921488518582 0.27167933958427531 0.60979020694219077 0.051621211338349696 0.029852395087754696 0.22109800263714258 0.053515576395284828 -0.0029475403222524784 0.075970092182483628 0.1826533593629377 -0.037667983786718248 0.3704780454503302 0.17036491274384094 0.027100646747905906 0.047563858937974726 0.040870400899617063 0.17852576955100941 0.085524173471782608 0.088900522578701041 0.17930468934022992 -0.010984476818043969 0.17167693593209724 0.50624746270101284 0.0018861941238483603 0.26849080301520911 -0.043328954016761172 -0.052578829803306741
leaf_weight=22.181447744369507 100.93625465035439 931.8191223628819 24.020419666543603 170.64031918346882 445.43632501550019 354.04484448954463 4710.9197928924114 615.05415462516248 108.85500171780586 142.06429719366133 324.30759204179049 154.85444621741772 25.300129134207964 34.637846034020185 365.59410169348121 17.485844265669584 14.960722651332615 81.412366161122918 4662.2563873399049 2.6204760223627082 24.19292413815856 159.08730952255428 73.443305099382997 217.09155816584826 93.69591561704874 39.580385765060782 201.11197677627206 5.309542411938307 72.948966592550278 31.039415251463652 18.275704085826874 6.646873438730835 8.9492556005716306 263.3787798397243 13.339568847790359 65.211789019405842 2.3965669348835936 3.9952089935541144 0.98102143034338851 157.35318365506828 63.961629189550877 9.6643538605421782 165.96861206740141 33.460832383483648 20.361577993258834 16.732268087565899 99.514224849641323 2.1291619502007952 8.5131967067718488 233.83311218582094 120.75268989615142 184.15983267873526 12.327745661139486 126.77300629764795 119.91613671183586 42.650146368891001 30.774535048753023 48.964753832668066 1.335677433758973 992.19038500450552 15.521866321563726 5.3702768944203845 2.8876781724393359
leaf_count=241 1586 28785 318 4205 3491 5384 173320 19441 2511 3780 1589 3618 352 577 11490 292 252 1103 161925 74 168 4634 1772 6049 765 538 1314 145 1327 301 242 154 91 7723 124 930 46 70 21 3593 1281 151 2971 850 510 224 3087 53 188 5538 3040 4617 125 2000 1950 457 623 458 19 27411 152 117 63
internal_value=-0.00107298 -0.01062 -0.0185979 0.0615096 0.0880943 0.087042 -0.0273029 -0.0194509 0.101977 0.0312717 0.113889 0.0991557 0.0513774 -0.024031 0.013252 0.0577691 0.111351 0.12879 -0.0265962 -0.0303734 0.034944 0.0164945 0.0155554 0.0138735 0.0339984 0.0741315 0.126567 -0.0326267 0.0698395 0.0199991 -0.00686262 -0.000251333 -0.0146609 0.00941922 0.18097 0.00687204 0.0394535 0.00819443 0.0806518 0.0132062 0.0824888 0.124248 0.0646621 0.00757509 -0.0331283 0.0748953 0.00613604 0.0167192 -0.00633397 0.0302971 0.00749084 0.0446376 0.0538768 0.0872279 0.0623892 0.106588 0.0915695 0.109528 0.0934979 0.0052941 0.0643657 0.159083 0.218129
internal_weight=17125.2 15469 13928.4 1540.56 1656.24 1002.98 11858.4 7147.53 1387.26 2069.95 1177.93 853.619 326.77 6320.56 406.879 839.143 736.086 526.849 5913.69 4963.59 209.337 268.973 826.963 537.585 288.131 133.276 555.157 4697.59 697.079 266.892 950.095 372.241 168.037 265.999 38.6397 235.852 253.716 515.403 91.1566 1230.8 100.482 14.9739 180.929 1073.45 4682.62 90.1756 511.408 411.894 225.605 236.23 735.807 186.289 76.2894 443.363 194.201 249.162 206.512 175.738 121.252 1049.43 57.2407 23.7798 18.4095
internal_count=510226 488250 458588 29662 21976 15357 409594 236274 15665 48994 11580 9991 5397 211776 12221 16490 9921 4594 199555 170528 4085 6311 24498 14305 4921 1303 6698 162731 12710 5436 29027 11644 4725 7797 476 5135 5876 14064 2017 32504 1574 296 3223 28911 162435 1996 13994 10907 6237 5584 22481 4670 1406 6834 3296 3538 3081 2458 1969 28593 1182 332 215
is_linear=0
shrinkage=0.05


Tree=7
num_leaves=64
num_cat=0
split_feature=67 111 19 94 94 111 94 86 86 109 50 37 109 69 37 14 59 94 14 98 37 52 109 109 22 109 81 37 47 65 51 109 20 50 87 81 67 111 76 1 6 73 81 6 6 67 98 76 109 94 98 94 14 34 1 51 6 37 85 65 69 6 112
split_gain=5247.62 2765.05 2193.8 1554.16 556.383 435.178 624.548 422.757 363.75 337.772 310.865 282.286 276.458 266.794 333.069 240.957 240.674 208.337 175.668 171.47 173.781 170.109 170.774 162.136 158.164 149.536 140.211 139.411 137.913 122.246 120.782 117.609 164.539 117.525 112.512 109.559 107.516 133.161 101.13 100.956 119.606 101.769 100.663 95.8181 602.112 90.4487 86.7763 86.3153 99.1506 89.0771 83.1308 136.723 88.8044 91.265 80.7487 92.6632 79.9968 79.216 79.0459 78.8102 78.3076 76.8251 77.6194
threshold=1.5000000000000002 1.0000000180025095e-35 25.965300559997562 2.5000000000000004 1.5000000000000002 1.5000000000000002 5.5000000000000009 1.5000000000000002 4.5000000000000009 25.500000000000004 1.5000000000000002 1.0000000180025095e-35 1.5000000000000002 2407188.0000000005 1.5000000000000002 75.06000137329103 1.0000000180025095e-35 2.5000000000000004 48.960000991821296 166.99500000000003 1.5000000000000002 2.5000000000000004 20.500000000000004 1.5000000000000002 2.5000000000000004 1.5000000000000002 1.5000000000000002 3.5000000000000004 250.25000000000003 1.0000000180025095e-35 2.5000000000000004 6.5000000000000009 2.5000000000000004 1.5000000000000002 1.5000000000000002 1.5000000000000002 12.500000000000002 6.5000000000000009 1.5000000000000002 3.5000000000000004 10960.500000000002 5.5000000000000009 35.500000000000007 15021.500000000002 15063.500000000002 8.5000000000000018 141.00500000000002 2.5000000000000004 2.5000000000000004 3.5000000000000004 44.005000000000003 1.5000000000000002 31.956100463867188 10.500000000000002 1.5000000000000002 1.0000000180025095e-35 13624.000000000002 2.5000000000000004 2001.0000000000002 1.0000000180025095e-35 2407188.0000000005 15815.500000000002 0.36421659588813787
decision_type=2 2 2 2 2 2 2 2 2 2 2 2 2 2 2 2 2 2 2 2 2 2 2 2 2 2 2 2 2 2 2 2 2 2 2 2 2 2 2 2 2 2 2 2 2 2 2 2 2 2 2 2 2 2 2 2 2 2 2 2 2 2 2
left_child=1 4 7 12 13 57 -7 11 10 36 18 17 34 -1 46 59 -6 33 -4 24 26 -12 39 -17 -13 -19 -21 -10 -14 38 35 32 47 43 54 -18 37 42 -16 50 41 -41 -8 -3 -45 -44 -15 48 49 -29 51 52 -23 -54 -2 -56 -52 -5 -33 -9 -57 62 -20
right_child=3 2 8 5 16 6 9 15 27 -11 21 19 28 14 29 23 30 25 61 20 -22 22 -24 -25 -26 -27 -28 31 -30 -31 -32 58 -34 -35 -36 -37 -38 -39 -40 40 -42 -43 45 44 -46 -47 -48 -49 -50 -51 56 -53 53 -55 55 60 -58 -59 -60 -61 -62 -63 -64
leaf_value=-0.006659493156744814 0.037459113565591236 -0.0029364421758119397 0.018906577528426071 0.1361428088517925 0.023380751445425254 0.0075505400273181214 0.12609282946176581 -0.0051074457798576771 -0.018831837385755619 0.041218834168762833 -0.0018996801405507802 -0.036921191222746737 -0.023004529851613401 0.073929878088723699 0.027057250751461911 0.082055646433263074 0.084225477974705434 0.14192641334799502 -0.01286776509182725 0.045042074117114736 -0.021573358734562911 0.87932556550754004 -0.021639208677856972 0.01243603581795589 0.63874663424024636 0.00073228228705062058 0.33410215789322928 0.090502801737118901 0.12489721652645769 -0.038857074982924275 0.012879555674719399 0.02700098711545525 0.15784156459268642 -0.026902213942631793 -0.0037578301758398472 0.15027446521761437 0.14080070264847977 -0.024572922426371404 0.1887882487256258 0.66751841016165547 -0.051945796710784399 0.23441349469249828 -0.046843568325532707 0.36430639326852654 -0.0056066248809522367 0.1031315990329762 0.14402628748913479 0.15280231033585953 0.025942231386875889 0.49972837218563609 0.00087750670884583458 -0.051874836628335558 -0.051886992526664136 0.56851045712147386 -0.021098292523234242 0.036182449830815096 0.13952033552592863 0.3188140700065813 0.15501756893486282 -0.039034463010914087 0.15510288860588006 0.011063822263976834 0.10653948556140612
leaf_weight=293.3332973010838 85.912726834416389 290.2766713667661 184.33741704188287 512.87868879362941 76.65298879519105 220.29593715444207 160.3508536349982 494.59667568095028 43.884657954797149 165.6828562002629 1047.6801990307868 7292.4678581934422 387.42627829313278 327.76302937790751 365.62528994306922 109.75675202906132 89.599835723638535 39.561708264052868 14.773197229951618 16.023974327370528 1867.3800022732466 0.96658136695623342 31.401406571269035 351.30338343419135 0.86622848175465961 35.650528782978654 5.6829547416418782 96.718734646216035 16.429895047098398 74.307383399456739 23.539001949131489 136.75948509201407 72.974073611199856 521.66968134231865 68.398960696533322 209.79179329797626 328.70775980129838 20.831016130745411 9.9281747601926309 2.2836934346705666 1.8631292283535001 3.3400924950838089 17.71517988294363 13.392882442101834 61.586802246049047 23.2437843978405 51.02540797367692 28.698041651397943 103.34253679029644 1.3483203090727318 19.783355666324496 1.9426203630864618 1.0070381034165623 1.4411022104322908 12.39631289988756 18.249326027929783 21.946459177881479 6.004364810883998 13.224344022572039 261.76311357878149 57.332676816731691 30.082991935312748 172.80786036327481
leaf_count=7191 1694 8545 4107 3237 1509 5130 1138 15450 955 2966 28560 270452 12030 4889 9155 2358 1077 399 329 527 65966 29 902 10121 14 713 63 1519 201 2420 357 2508 815 17272 1505 1397 1617 174 200 43 52 20 122 123 1800 118 665 362 1751 16 528 56 29 18 250 322 164 90 117 9645 904 572 2968
internal_value=-0.00108595 -0.0115084 -0.018764 0.0728786 0.0523639 0.101523 0.0811776 -0.0273226 0.0290774 0.103814 0.0170449 -0.0306637 0.00834471 0.0343203 0.0488267 0.00051837 0.103028 -0.00489709 0.0548226 -0.0333636 -0.0199383 0.00364869 0.0712601 0.0290092 -0.0368409 0.0750005 0.120719 0.0662596 -0.0169875 0.0197389 0.121934 0.0745017 0.0924223 -0.0116725 0.0505692 0.130508 0.122641 0.0957705 0.0313328 0.124713 0.29526 0.410288 0.108223 0.0100791 0.0604673 0.0382658 0.0833723 0.0716759 0.0601165 0.0961292 0.0975963 0.283013 0.473529 0.313311 0.0719384 0.105608 0.0737923 0.138257 0.0382884 -0.016849 0.126389 0.0852396 0.0971354
internal_weight=17018 14916.2 13394.6 2101.86 1521.57 1455.71 936.827 11362 2032.61 716.531 1535.66 10144.6 646.146 1121.98 828.649 1217.42 399.584 962.138 402.001 9182.42 1889.09 1133.66 85.9755 461.06 7293.33 75.2122 21.7069 496.95 403.856 449.861 322.931 453.066 303.082 886.926 242.29 299.392 550.849 222.141 375.553 54.5741 7.48692 5.62379 201.31 365.256 74.9797 40.959 378.788 230.108 201.41 98.0671 47.0872 5.35734 3.41472 2.44814 173.891 87.9783 41.7298 518.883 149.984 756.36 75.582 217.664 187.581
internal_count=510226 478728 449868 31498 28860 14592 11265 403448 46420 6135 38377 365874 16906 24520 17329 37574 4340 28852 7976 337022 66556 30401 1841 12479 270466 1112 590 8043 12231 11775 2831 7088 4463 27740 4675 2474 3169 1552 9355 939 115 63 1378 10468 1923 240 5554 3648 3286 1535 824 132 76 47 3170 1476 692 3327 2625 25095 1226 3869 3297
is_linear=0
shrinkage=0.05


Tree=8
num_leaves=64
num_cat=0
split_feature=67 111 62 94 97 42 109 109 69 65 1 109 50 88 53 94 86 50 69 19 1 111 34 34 70 1 111 94 94 52 28 69 94 65 94 70 14 24 51 69 6 98 109 94 111 94 76 53 51 58 42 70 53 109 76 47 24 37 1 70 24 37 45
split_gain=4609.44 2459.16 2114.53 1299.51 469.918 463.25 435.822 430.743 385.094 361.869 317.505 363.093 208.174 175.73 288.633 157.955 153.522 152.558 250.626 147.784 135.011 154.581 127.049 122.288 117.137 116.626 110.383 304.478 110.036 106.191 109.002 105.455 102.929 100.093 98.3235 98.2236 95.8181 95.5721 103.584 95.4451 95.4371 93.7278 95.7364 93.1984 153.905 92.5331 134.533 130.423 126.945 107.886 90.4222 90.3305 89.6261 107.557 142.235 127.666 115.323 89.0952 86.7388 85.1125 116.061 84.5325 110.879
threshold=1.5000000000000002 1.0000000180025095e-35 118.00999832153322 3.5000000000000004 1.0000000180025095e-35 67.969997406005874 1.5000000000000002 25.500000000000004 2407188.0000000005 1.0000000180025095e-35 1.5000000000000002 1.5000000000000002 1.5000000000000002 4.5000000000000009 296.50000000000006 1.5000000000000002 3.5000000000000004 1.5000000000000002 3013489.5000000005 312.19314575195318 1.5000000000000002 2.5000000000000004 1.5000000000000002 4.5000000000000009 37.500000000000007 1.5000000000000002 1.5000000000000002 5.5000000000000009 3.5000000000000004 3.5000000000000004 2.5000000000000004 1867139.5000000002 1.5000000000000002 1.0000000180025095e-35 7.5000000000000009 2.5000000000000004 149.02224731445315 109.00000000000001 1.5000000000000002 3195885.0000000005 15066.500000000002 335.00500000000005 1.5000000000000002 41.500000000000007 7.5000000000000009 1.5000000000000002 1.5000000000000002 495.00000000000006 1.5000000000000002 150.47499847412112 445.09500122070318 72.500000000000014 341.50000000000006 99.500000000000014 6.5000000000000009 957.50000000000011 115.50000000000001 2.5000000000000004 1.5000000000000002 313.50000000000006 225.50000000000003 1.0000000180025095e-35 149.50000000000003
decision_type=2 2 2 2 2 2 2 2 2 2 2 2 2 2 2 2 2 2 2 2 2 2 2 2 2 2 2 2 2 2 2 2 2 2 2 2 2 2 2 2 2 2 2 2 2 2 2 2 2 2 2 2 2 2 2 2 2 2 2 2 2 2 2
left_child=1 4 9 6 33 19 22 26 31 10 17 28 39 -8 -15 37 35 18 23 -4 29 40 24 -3 25 -2 57 -28 -12 -18 -31 32 -6 58 -9 -14 -27 -10 -39 -7 50 61 -43 44 -29 49 -47 48 -48 -41 -22 -13 53 54 55 56 -21 -5 -1 -58 -61 62 -20
right_child=3 2 5 7 8 12 13 34 15 -11 11 51 16 14 -16 -17 20 -19 41 52 21 -23 -24 -25 -26 36 27 43 -30 30 -32 -33 -34 -35 -36 -37 -38 38 -40 45 -42 42 -44 -45 -46 46 47 -49 -50 -51 -52 -53 -54 -55 -56 -57 59 -59 -60 60 -62 -63 -64
leaf_value=0.014846031198131472 0.049158575160072195 -0.034284520647610124 -0.0071482398853521673 0.12758816038706974 0.017313130393122499 0.033028307933352694 -0.01824420771667189 -0.046480846364137691 0.15114597945356545 -0.039007527741927679 0.053955666600840106 0.0093616326741600402 0.042875876159537245 0.22371724543706237 -0.040066183277987145 0.11427900982646394 0.020454795142465069 -0.030436767191618155 -0.043072141285096302 0.12802446057006012 0.14843840036498296 0.02159990573270976 0.0053180000444284399 0.34837845351663677 -0.024147288052753582 0.11422380789846152 0.012889719413924331 0.10233287966315477 0.15420757888439074 0.043141522477650011 0.58047471708829435 -0.023796420840400446 0.11286653491937995 -0.036286677100679607 0.046267903281289657 -0.012068090910963889 0.50074613378290223 0.075679925171909052 0.020280800643718132 0.1315143978232958 -0.0079605979764478373 0.12095776873127971 -0.017140418151338176 0.13425087610876413 -0.040566994817369695 0.0015192758460346634 0.0038174625526550539 0.54127700236609122 0.14576874238331347 0.00039847559193294908 -0.023561136041101619 -0.024337548026856781 -0.022060930010937452 -0.035268952057139029 0.13568426948891507 0.50762699724120741 0.0072065192593977175 0.35943449927451171 0.10772284096735361 0.19262748785158135 0.01896486868931406 -0.0097428692767817029 0.037739115851201772
leaf_weight=430.01877341419458 105.07606319896877 781.56351941823959 914.20231202244759 438.7247278355062 111.12498282641172 89.542246334254742 476.3104764316231 34.869364002719522 32.030404895544052 4278.1063242536038 110.30662299506366 415.60661447606981 129.41970205120742 20.310670366510749 21.189091248437762 293.26158944889903 191.91410440392792 3792.6039660517126 51.674755258485675 28.679945919662714 97.086509710177779 61.964237900450826 75.471011698246002 2.0934055261313906 25.160190710797906 140.43612449802458 91.563276492059231 309.97284755110741 36.403841270133853 2.0786620248109098 1.7287704814225433 105.49713451042771 37.759371917694807 94.37795739248395 158.28898499533534 218.96501393802464 1.6219040267169464 335.43885765969753 112.73526023700833 143.75282850861549 13.148958759382365 33.565537746995687 20.044383306056261 247.14814085513353 20.061565767973661 55.179797403514385 24.474411150440574 1.6784170698374499 44.182543929666281 17.610971823334694 8.2939601242542249 381.28940044343472 71.100939135998487 41.941280964761972 41.867152985185385 1.4283774346113194 184.76541221886873 4.1832628324627867 26.699270825833082 15.879621166735886 24.409650776535273 583.67278232984245 237.698571017012
leaf_count=10640 1867 27403 29047 2179 2486 1569 14395 931 458 168132 2910 12956 2948 159 672 2133 3753 135045 1592 355 1114 1225 1436 27 485 1713 1799 1922 292 43 28 2322 378 3100 2631 6226 25 4715 2090 1835 237 996 558 1096 151 957 513 30 481 325 148 13173 1799 1173 493 34 4602 37 538 199 573 20710 6367
internal_value=-0.00109496 -0.011119 -0.0181985 0.0669313 0.0478409 0.0239638 0.0194292 0.0984427 0.067814 -0.0277332 -0.0202512 0.00654566 0.0479293 -0.00964644 0.0890338 0.0853654 0.0322591 -0.0248461 -0.012449 0.00403852 0.0544062 0.0855969 0.0627219 -0.0332623 0.0786324 0.0890962 0.110418 0.0975956 0.0788316 0.0256423 0.287118 0.0144477 0.0415469 0.010589 0.0295247 0.00834277 0.118637 0.0677079 0.0617446 0.0780939 0.119053 0.00515249 0.0693238 0.111033 0.0936465 0.09216 0.0599624 0.105812 0.0951668 0.117205 0.134901 -0.00676235 0.0289779 0.0396836 0.050267 0.0362518 0.0335982 0.129778 0.0202755 0.0215649 0.0874123 0.00121201 0.0233083
internal_weight=16899.3 14728.9 13149.9 2170.39 1578.94 2425.3 865.576 1304.81 1027.85 10724.6 6446.52 943.606 1101.02 517.81 41.4998 773.466 724.6 5502.92 1710.31 1324.27 376.215 180.494 347.765 783.657 272.294 247.134 1111.65 668.746 146.71 195.722 3.80743 254.381 148.884 551.096 193.158 348.385 142.058 480.205 448.174 376.421 118.529 926.656 53.6099 577.183 330.034 286.879 125.515 70.3354 68.657 161.364 105.38 796.896 410.072 338.971 297.03 255.163 253.735 442.908 456.718 225.055 40.2893 873.046 289.373
internal_count=510226 478728 449868 31498 28860 59707 20752 10746 14582 390161 222029 29331 21432 15226 831 9396 15722 192698 57653 38275 6548 2724 5526 27430 4090 3605 7184 4968 3202 3824 71 5186 2864 14278 3562 9174 1738 7263 6805 5710 1499 30223 1554 3169 2073 4141 1981 1024 994 2160 1262 26129 9228 7429 6256 5763 5729 2216 11178 5374 772 28669 7959
is_linear=0
shrinkage=0.05


Tree=9
num_leaves=64
num_cat=0
split_feature=67 111 62 94 94 42 65 109 81 37 69 109 41 94 111 94 50 50 69 19 86 86 98 37 112 24 6 24 9 109 94 65 45 70 34 109 65 76 6 24 69 109 98 76 91 76 109 58 18 69 99 69 98 45 98 98 94 46 51 84 42 70 105
split_gain=4074.61 2194.43 1947.18 1119.6 404.73 392.796 354.761 304.026 272.993 268.001 222.041 206.098 189.427 188.23 410.119 169.09 166.099 141.981 217.43 133.772 128.79 123.35 104.381 105.875 107.432 180.04 120.919 99.4943 97.5863 96.5081 186.529 95.386 86.1702 85.4617 82.8684 82.7864 236.247 107.241 200.907 92.5391 116.994 85.7395 82.7303 81.5573 125.452 79.1973 77.1864 99.5556 76.4744 76.3616 75.9373 75.6295 76.7842 75.2932 74.3614 226.249 73.1651 70.5498 70.4532 88.5182 96.8846 69.688 69.0892
threshold=1.5000000000000002 1.0000000180025095e-35 118.00999832153322 2.5000000000000004 2.5000000000000004 67.969997406005874 1.0000000180025095e-35 20.500000000000004 3.5000000000000004 1.5000000000000002 2407188.0000000005 1.5000000000000002 1.0000000180025095e-35 5.5000000000000009 1.5000000000000002 8.5000000000000018 1.5000000000000002 1.5000000000000002 3195885.0000000005 28.97500038146973 3.5000000000000004 2.5000000000000004 426.39500000000004 1.0000000180025095e-35 0.54636758565902721 225.50000000000003 15130.500000000002 225.50000000000003 1.0000000180025095e-35 2.5000000000000004 3.5000000000000004 1.0000000180025095e-35 146.50000000000003 2.5000000000000004 2.5000000000000004 127.50000000000001 25.500000000000004 6.5000000000000009 17819.500000000004 115.50000000000001 5366861.0000000009 18.500000000000004 102.33400000000002 4.5000000000000009 2.5000000000000004 3.5000000000000004 7.5000000000000009 13.169450283050539 741.25000000000011 5332037.5000000009 1.5000000000000002 2350837.0000000005 159.95500000000001 149.50000000000003 497.06500000000005 445.03000000000003 2.5000000000000004 1308.7500000000002 4.5000000000000009 6.5000000000000009 25.954999923706058 251.50000000000003 177.50000000000003
decision_type=2 2 2 2 2 2 2 2 2 2 2 2 2 2 2 2 2 2 2 2 2 2 2 2 2 2 2 2 2 2 2 2 2 2 2 2 2 2 2 2 2 2 2 2 2 2 2 2 2 2 2 2 2 2 2 2 2 2 2 2 2 2 2
left_child=1 4 6 11 9 19 8 13 12 10 -1 34 17 14 -5 29 43 18 -3 -4 33 -13 23 24 -20 -26 -27 -22 61 30 -10 32 -11 -18 -2 36 37 39 48 40 -21 50 -12 46 -45 -29 47 49 -39 -7 -41 -34 -53 -23 55 -24 -51 -43 59 -55 -61 -9 -50
right_child=3 2 5 7 -6 16 -8 28 15 31 42 21 -14 -15 -16 -17 20 -19 22 35 27 53 54 -25 25 26 -28 45 -30 -31 -32 -33 51 -35 -36 -37 -38 38 -40 41 -42 57 -44 44 -46 -47 -48 -49 62 56 -52 52 -54 58 -56 -57 -58 -59 -60 60 -62 -63 -64
leaf_value=0.0082256853199995476 0.052651118033161928 -0.031948773639371125 -0.014097574413401466 0.10709973782962293 0.11040076455592288 0.053839743173957358 -0.03849077614822613 0.034411248860218201 0.0030403652478927868 0.18603073041250784 0.062304086407943805 -0.027160014149598035 0.016982942279423759 0.10753635194060385 0.0069402115080836671 0.12942015093549855 0.039147540811647619 -0.029710448764796296 0.0073353889486681596 0.14540280834781791 0.020385239528628515 -0.052070978798906757 0.069486931540136937 -0.011873583630093023 0.017385246863711911 0.24294774120698587 -0.011117113701327251 0.055672396792628968 0.10179030725860704 -0.0043222909325338647 0.14793690098565479 -0.035910934876554466 -0.015092890740104788 -0.011596473520204671 -0.026850910655444357 -0.046577054142350333 0.82741533539407408 -0.019759543113294965 0.65874117095873463 0.019986150318558042 -0.015464406974491538 -0.024678816578676394 0.11235865029346158 0.30837209120422937 0.040551445462440189 0.12773047141714786 0.0057279021009174654 0.0086634908272767795 -0.051895613196615897 0.11668848815979677 0.21075849167285537 0.0069052144695244096 0.047827825528973023 0.094100896325950131 0.038952889549676128 0.58996361613507109 -0.0024294399741354492 0.13726431054479321 -0.041109440807065099 0.61433006531585987 0.056558008627049898 -0.038906934912836415 0.12668062750076595
leaf_weight=185.40084069222212 226.04943731240928 776.13673060759902 584.07551460899413 256.13116110488772 200.60541085526347 115.78930222243071 4122.724136531353 168.81290450133383 64.492665035650134 7.6607730053365222 450.66830614581704 338.07808208838105 290.0435183737427 890.77923100069165 170.06358553096652 32.143408698961139 134.51927945390344 3905.7982322871685 206.27542188763618 28.697685979306698 167.29114768467844 12.595128081738947 9.8818596526980382 601.86693035624921 44.066649975255132 19.918282903730873 6.1228739973157635 175.2885121461004 44.623485511168838 291.88895852118731 33.878800455480814 89.462388284504414 138.64618097990751 216.53980671241879 38.335993446409702 46.660750048235059 0.9097824189811935 17.65963669680059 1.4763281978666771 389.74390910193324 18.645959820598364 179.34680274873972 101.0617921538651 8.8078879974782485 8.6830203980207425 48.732751356437802 48.008446047082543 50.221654947847128 6.2634012922644606 153.15913095884025 5.2870866917073718 232.86037672683597 225.75573793053627 29.050392249599099 37.903421394526958 2.6473352015018454 14.075835747644303 6.9873023927211753 8.4002853762358409 1.7947010621428483 1.3750274796038864 40.110264670103788 40.047721950337291
leaf_count=3850 3895 28192 20505 1920 1206 1619 168132 2853 1522 133 5567 11065 7833 4381 3889 520 2948 143615 5871 347 3151 344 277 21725 1219 173 176 2927 547 9511 295 3067 3603 6226 780 1339 26 453 34 9543 367 4896 1069 132 129 470 932 930 180 1760 95 5571 4794 580 1032 68 208 75 182 28 32 1002 415
internal_value=-0.00109717 -0.010739 -0.0176437 0.0618977 0.0438882 0.0223101 -0.0270794 0.0848087 -0.019639 0.0345675 0.055565 0.0070202 -0.0224187 0.0944612 0.0671333 0.0191911 0.0438156 -0.0244556 -0.0124164 0.00380026 0.029835 -0.0160222 0.00390755 -0.000109381 0.025509 0.0789804 0.183211 0.0495606 0.0346711 0.0101122 0.0529422 0.0122774 0.019404 0.00784768 0.0411233 0.017894 0.022222 0.0211667 0.0820785 0.0148259 0.0820464 0.00935182 0.0714727 0.0698443 0.175418 0.0713476 0.0650009 0.0735399 0.0687702 0.085052 0.0225394 0.0172668 0.0270495 0.054736 0.0738597 0.17946 0.106663 -0.0186061 0.0878535 0.121476 0.372369 0.0203352 0.102529
internal_weight=16771 14544.8 12912.7 2226.2 1632.12 2466.92 10445.8 1570.52 6323.07 1431.52 737.131 655.679 5900.66 1316.97 426.195 422.404 1141.12 5610.62 1704.82 1325.8 742.371 391.294 928.683 878.25 276.383 70.1078 26.0412 391.312 253.547 390.26 98.3715 694.385 604.923 351.059 264.385 741.726 695.066 694.156 65.4471 628.709 47.3436 581.365 551.73 398.745 17.4909 224.021 381.254 333.246 63.9708 283.024 395.031 597.262 458.616 53.2155 50.4326 12.5292 167.235 186.334 40.6204 32.2201 3.16973 208.923 46.3111
internal_count=510226 478728 449868 31498 28860 59707 390161 14592 222029 27654 10486 16906 210181 10190 5809 11848 21432 202348 58733 38275 15722 12231 30541 29164 7439 1568 349 6548 4402 11328 1817 17168 14101 9174 4675 17770 16431 16405 1082 15323 714 14609 6636 5710 261 3397 5449 4517 1048 3587 9638 13968 10365 1166 1377 345 1968 4971 822 640 60 3855 595
is_linear=0
shrinkage=0.05


Tree=10
num_leaves=64
num_cat=0
split_feature=23 109 62 94 22 97 109 42 109 65 69 81 89 53 65 86 94 94 1 98 78 34 105 105 109 90 69 94 91 20 109 1 94 46 24 83 42 84 65 1 20 109 76 22 53 53 51 109 105 76 105 98 1 69 53 98 56 9 40 105 6 86 53
split_gain=3483.35 2035.22 1757.56 1016.76 379.489 358.397 343.477 341.202 314.266 292.723 262.255 190.537 169.408 161.422 151.66 151.315 148.275 160.619 128.295 124.04 123.275 117.522 117.407 282.042 115.773 110.546 110.069 105.934 100.873 91.2052 90.2676 208.297 100.949 86.5385 84.3014 82.3538 81.1253 80.6765 80.5467 80.5102 75.6552 74.4809 119.875 150.776 106.517 198.096 74.2148 73.2782 133.52 117.399 85.0574 77.4683 81.8459 72.6661 72.5227 85.2259 74.827 148.874 71.435 68.7956 120.685 75.2758 113.618
threshold=1.5000000000000002 1.0000000180025095e-35 118.00999832153322 3.5000000000000004 1.5000000000000002 1.0000000180025095e-35 21.500000000000004 67.969997406005874 1.5000000000000002 1.0000000180025095e-35 2407188.0000000005 3.5000000000000004 1.5000000000000002 283.50000000000006 1.0000000180025095e-35 1.5000000000000002 1.0000000180025095e-35 1.5000000000000002 2.5000000000000004 335.00500000000005 1.0000000180025095e-35 1.0000000180025095e-35 361.50000000000006 360.50000000000006 1.5000000000000002 586.25000000000011 1614538.5000000002 8.5000000000000018 1.5000000000000002 10.500000000000002 2.5000000000000004 16.500000000000004 5.5000000000000009 24.994999885559086 109.00000000000001 1.5000000000000002 68.047199249267592 4.5000000000000009 1.0000000180025095e-35 1.5000000000000002 2.5000000000000004 127.50000000000001 6.5000000000000009 1.5000000000000002 250.50000000000003 228.50000000000003 1.5000000000000002 8.5000000000000018 566.50000000000011 2.5000000000000004 214.50000000000003 380.19500000000005 1.5000000000000002 8055783.5000000009 511.50000000000006 43.993000000000002 2.5000000000000004 127.83850097656251 5.5000000000000009 566.50000000000011 13832.500000000002 6.5000000000000009 225.50000000000003
decision_type=2 2 2 2 2 2 2 2 2 2 2 2 2 2 2 2 2 2 2 2 2 2 2 2 2 2 2 2 2 2 2 2 2 2 2 2 2 2 2 2 2 2 2 2 2 2 2 2 2 2 2 2 2 2 2 2 2 2 2 2 2 2 2
left_child=1 5 4 8 9 38 30 21 18 11 26 15 -10 39 25 19 -12 34 33 20 29 -4 23 -22 -6 36 -7 54 37 -3 -5 32 -32 35 -18 -2 -9 -8 40 -14 -1 42 -23 44 45 -44 -36 49 -49 51 -51 52 -38 -39 56 -56 -13 58 -58 61 -61 -54 -63
right_child=3 2 7 6 24 10 28 14 12 -11 16 27 13 -15 -16 -17 17 -19 -20 -21 22 41 -24 -25 -26 -27 -28 -29 -30 -31 31 -33 -34 -35 46 -37 47 53 -40 -41 -42 -43 43 -45 -46 -47 -48 48 -50 50 -52 -53 59 -55 55 -57 57 -59 -60 60 -62 62 -64
leaf_value=0.014500548636361394 0.05362014057370959 -0.030982198803943817 -0.013743150077290959 0.11021216090722248 0.074284940654273282 0.051808779094820234 0.036235967556612569 0.22996327240097597 -0.02118133748112927 -0.037996319095903064 0.21184630114913849 0.00071222873945244846 0.19234868838251518 -0.0088655387944569994 -0.0013294659836803582 -0.00043103400317042248 0.12095897818856338 0.093869017379808503 0.12559951021831883 0.0099669117091709877 0.0021739149694207311 0.013323073084586063 -0.023269393566072809 0.18668977138494153 0.00065829762506458707 0.11725801418268163 -0.013006223173594839 0.1255520408487095 -0.044779150211852886 0.2964801501622068 0.0026961161376054198 0.11065580360818439 0.069520675765332107 0.2253245123707123 0.055790391220389979 -0.0087892290904827437 0.025240786800901967 0.27460171355463503 -0.035153062081052108 -0.031996138937430599 0.18814109407151841 -0.046280787601150356 0.093171544535205486 0.55661629056220374 -0.01600877060280155 0.60581352855372461 0.010580217899655842 -0.008817184610291599 0.13315335988858984 0.00091148184696704436 0.1313476393236547 0.081583408923841277 0.03429826265819523 -0.055397157287215587 0.5903178966180368 0.088643585643492409 0.23353834871961732 0.057654552673087694 0.87838340156475214 0.060476920134311385 0.61461581990614933 -0.01773345408771158 0.1546883008256302
leaf_weight=467.01720939204097 172.81711935251951 4049.8442889787257 578.8805893342942 546.24519750103354 113.93716910108924 112.99794641882181 180.30915076844394 5.8156394530087701 445.99694807454944 3969.085340058431 18.220959644764662 284.13968716748059 23.698975851759318 32.205151962116361 186.62944093719125 676.86506655625999 38.437882449477911 347.99575533717871 51.505995068699121 233.72816222719848 245.01718417368829 643.90037052892148 499.54464565962553 22.62248451076448 100.47608613967896 54.134138997644186 155.83626485615969 20.949116934090853 39.081193864345551 2.1274776570498934 78.076312370598316 304.70834269747138 204.65961134061217 6.0885667521506539 346.28564062342048 76.152317199856043 468.3123349994421 6.5907234624028188 88.429100997745991 4.8108763601630917 6.358427468687295 44.923793010413647 43.395068874582648 1.6349183283746231 23.344531036913395 1.9700081311166275 123.0213776640594 125.58037504740059 19.076864862814546 15.50520385801792 64.45195134729147 106.20623755827546 86.83197583630681 2.2335320673882961 1.0883905291557301 3.8104598447680473 0.85792841762304195 11.614696916192768 0.85998336039483547 2.6221191845834246 1.5713647212833164 12.791943453252314 37.750101495534182
leaf_count=11067 2525 156752 20568 2679 1500 1964 2714 59 13842 167908 131 8918 221 917 4493 20362 468 2250 470 6997 7742 15465 16667 211 2783 553 3303 445 1024 28 1550 1281 1329 108 4488 1522 9073 63 3100 119 88 1347 482 20 575 32 2143 2820 157 211 701 1387 1625 28 27 103 15 268 25 46 27 147 293
internal_value=-0.00109515 -0.0099654 -0.0168195 0.0578983 -0.0260356 0.0413491 0.084315 0.0205387 0.0136613 -0.0274437 0.057424 -0.0205242 -0.0105144 0.0678419 0.0400495 -0.0226315 0.0707085 0.0677033 0.0536207 -0.0256053 -0.0273306 0.00322629 -0.00895231 0.0177703 0.0397828 0.0477671 0.0142372 0.01682 0.0283494 -0.0308103 0.095581 0.081976 0.0510674 0.0390855 0.0497699 0.034531 0.0437927 0.0434602 0.00865022 0.154492 0.0168329 0.0161658 0.0200935 0.0820668 0.070775 0.115433 0.0439393 0.0426417 0.00990537 0.0485906 0.106054 0.0421743 0.0353115 0.191075 0.00928672 0.200102 0.00614433 0.121911 0.556347 0.0686259 0.268122 0.0625361 0.111049
internal_weight=16641.7 14466.5 12761.9 2175.18 10236.6 1704.6 1361.9 2525.33 813.276 10022.2 1142.8 6053.07 506.712 60.715 1187.28 5729.75 873.962 855.741 306.564 5052.88 4819.16 1338.05 767.184 267.64 214.413 1000.65 268.834 323.32 228.215 4051.97 1133.69 587.444 282.736 255.058 507.745 248.969 946.516 189.133 561.805 28.5099 473.376 759.169 714.245 70.3445 68.7096 45.3651 469.307 940.7 144.657 796.043 79.9572 716.086 609.88 8.82426 302.371 4.89885 297.472 13.3326 1.71791 141.568 4.19348 137.374 50.542
internal_count=510226 479834 450832 30392 390751 29002 10668 60081 19724 386468 14747 218560 15099 1257 21592 208759 9480 9349 4625 188397 181400 38489 24620 7953 4283 17099 5267 9801 3829 156780 6839 4160 2879 4155 7099 4047 16546 2805 14255 340 11155 17921 16574 1109 1089 514 6631 16487 2977 13510 912 12598 11211 91 9356 130 9226 308 40 2138 73 2065 440
is_linear=0
shrinkage=0.05


Tree=11
num_leaves=64
num_cat=0
split_feature=67 111 19 94 50 94 107 109 15 50 37 37 37 86 109 69 94 109 70 1 52 109 109 70 53 70 69 94 98 70 1 6 105 105 20 1 37 69 9 76 31 9 105 85 76 1 64 6 98 34 105 37 37 84 69 105 98 70 109 8 86 1 6
split_gain=3226.46 1765.3 1616.76 845.29 375.43 313.629 246.929 236 228.969 206.521 213.94 194.956 192.808 176.458 158.862 153.247 148.065 198.956 138.015 130.048 112.394 110.684 109.418 107.31 105.908 100.11 96.7318 92.6398 90.1619 89.0385 85.7875 93.107 81.2988 231.347 80.9394 77.0136 215.46 163.933 96.063 99.5332 76.9393 73.8315 72.5342 79.1423 70.239 70.121 67.6222 67.6076 72.846 65.9834 65.5345 64.6194 64.5802 139.057 103.078 89.7648 64.3614 95.601 63.4487 63.2205 63.1136 92.9853 61.4251
threshold=1.5000000000000002 1.0000000180025095e-35 25.965300559997562 2.5000000000000004 1.5000000000000002 2.5000000000000004 1.0000000180025095e-35 20.500000000000004 24.551300048828129 1.5000000000000002 2.5000000000000004 1.5000000000000002 1.0000000180025095e-35 4.5000000000000009 1.5000000000000002 2407188.0000000005 4.5000000000000009 1.5000000000000002 85.500000000000014 1.5000000000000002 2.5000000000000004 5.5000000000000009 20.500000000000004 359.50000000000006 123.50000000000001 197.50000000000003 2350837.0000000005 1.5000000000000002 266.2050000000001 49.500000000000007 2.5000000000000004 7585.5000000000009 361.50000000000006 360.50000000000006 5.5000000000000009 1.5000000000000002 1.5000000000000002 5984981.0000000009 168.42500305175784 4.5000000000000009 68.617851257324233 1.0000000180025095e-35 577.50000000000011 1759.0000000000002 1.5000000000000002 2.5000000000000004 2.5000000000000004 15758.000000000002 295.09500000000008 2.5000000000000004 327.50000000000006 1.0000000180025095e-35 2.5000000000000004 1.5000000000000002 7754358.5000000009 385.50000000000006 422.51500000000004 313.50000000000006 2.5000000000000004 703.70001220703136 1.5000000000000002 4.5000000000000009 12579.000000000002
decision_type=2 2 2 2 2 2 2 2 2 2 2 2 2 2 2 2 2 2 2 2 2 2 2 2 2 2 2 2 2 2 2 2 2 2 2 2 2 2 2 2 2 2 2 2 2 2 2 2 2 2 2 2 2 2 2 2 2 2 2 2 2 2 2
left_child=1 5 4 14 6 11 12 16 40 10 -4 15 27 20 49 51 17 -5 28 34 56 -21 23 30 -16 -12 -14 32 -8 35 -22 -32 33 -3 -15 -28 37 -37 -38 -40 -6 -9 43 45 -30 50 -27 48 -17 -2 62 -1 -19 -54 -55 -56 59 -58 -29 -11 -26 -62 -23
right_child=3 2 9 7 8 -7 18 41 -10 13 25 -13 26 19 24 47 -18 52 -20 21 22 42 -24 -25 60 46 29 58 44 -31 31 -33 -34 -35 -36 36 38 -39 39 -41 -42 -43 -44 -45 -46 -47 -48 -49 -50 -51 -52 -53 53 54 55 -57 57 -59 -60 -61 61 -63 -64
leaf_value=0.041481336694388367 0.043895517466348483 0.0037603096356286629 -0.021309492036961652 0.087628601112738846 -0.034202139844064276 0.093929794946894074 0.032964026422154701 0.017103909344949327 0.0015586841286151028 0.0002816605724282684 0.064152632482887523 0.010366803021560754 -0.036799304080775565 0.0082062911397859668 0.10865685315231605 0.062926224169475561 0.090238678023421878 -0.0045139401206484428 -0.022541286396773132 0.11223039442964067 0.0026902207858149939 0.096263571675326703 -0.021510856917436101 0.35233464311638518 -0.032122993191271307 -0.032889566680927775 -0.010249186759041783 0.077683071183308139 0.078542397331104213 -0.037381970440347745 0.40886665112911924 0.1026157615564558 -0.017581233334708801 0.17926729485560189 0.31765579205033118 0.82690175008825362 0.0099261880673645712 0.17867865903037031 0.10389442930926573 0.65821420630306315 -0.016125318948508143 0.084950680049077687 0.13467015240656074 0.18028977235585505 0.22442252412392363 -0.034339444597382425 0.37342566724353277 0.023618224846456544 0.16847312161853825 -0.026770329548480187 -0.014811783274353552 -0.017810981277122634 0.0027329176693649147 0.069665319846321724 0.58097932111100847 0.042578178911195044 0.015384497942589124 0.16364742259559012 -0.033442487352218359 -0.034981780012266643 0.010705194937292498 0.42966811894402995 0.42366669332109297
leaf_weight=79.041571799665689 244.50262136384845 112.38195217959583 99.177513808012009 178.27622659504414 6594.1027080509812 214.81361896917224 206.81747582554817 216.5859472900629 526.62239130027592 827.07474232465029 514.6395800281316 713.02495049498975 662.59214441850781 177.59714072011411 16.522063031792641 478.24909837171435 1055.2548528686166 127.27805940620601 91.725770818069577 88.274582091718912 23.544857338070869 16.541746206581596 31.080402970314026 3.7558212596923104 280.34057615511119 35.719529118388891 720.55235975980759 78.973199827596545 49.634770292788744 272.62532050721347 2.6846463829278937 32.847018424421549 191.64150730147958 22.542971916496754 2.1385455429553977 1.3635801337659348 95.998443234711885 3.4256695825606585 2.8783151246607295 1.1268616952002046 646.32788147777319 49.208353437483311 15.852047223597763 6.9670343175530425 9.896595321595667 47.706002898514271 1.0542306639254082 112.646599303931 16.926215693354607 38.193715265020728 15.762552626430987 109.76708702743053 16.342646026983861 3.6501885931938878 2.9122075047343974 1.0544843599200246 53.702869307249784 13.63279710151255 15.340089047327636 150.1798721794039 81.746823560446501 1.3461599200963963 1.5684152171015728
leaf_count=1085 3895 3284 2049 1232 271505 1206 5488 3855 17102 22957 7260 17168 26775 3230 216 5101 5357 3021 3456 1035 592 206 902 41 9728 861 28074 1405 790 11136 33 273 5883 140 31 30 3835 42 89 38 23767 547 76 55 215 939 19 1373 162 780 235 2765 430 72 50 28 1236 191 394 4176 2261 26 23
internal_value=-0.00108838 -0.0100131 -0.0165712 0.0536683 -0.0248166 0.0374025 -0.00812762 0.0728193 -0.0302732 0.0227452 0.0462978 0.029359 -0.0144444 0.0126035 0.00596616 0.046358 0.0811025 0.0518441 0.030355 0.04248 0.00283084 0.0710177 0.0552254 0.0931834 -0.0151508 0.0584577 -0.0217124 0.015958 0.0485716 -0.0126079 0.0767077 0.125755 0.00335158 0.0330836 0.0118882 -0.00442455 0.0356255 0.363239 0.0199358 0.259853 -0.0325885 0.0296649 0.03617 0.0185358 0.102794 0.00472162 -0.0212413 0.0585805 0.0665341 0.0343482 0.0597348 0.00701075 0.00966201 0.0849677 0.261409 0.437854 -0.00187963 0.0454018 0.0596085 -0.00513746 -0.0207792 0.0174927 0.124618
internal_weight=16505.8 14192.5 12468.1 2313.21 10306.6 1724.47 2539.52 1650.56 7767.05 2161.5 650.591 1509.66 2181.44 1510.91 662.652 796.631 1384.77 329.514 358.075 372.408 1138.5 192.672 93.9127 62.8323 379.956 551.413 1760.56 420.88 266.349 1097.97 59.0765 35.5317 326.566 134.925 179.736 825.345 104.793 4.78925 100.004 4.00518 7240.43 265.794 104.398 88.5458 59.5314 81.5787 36.7738 607.822 495.175 282.696 33.8727 188.809 151.238 23.9595 7.61688 3.96669 1044.59 67.3357 94.3133 977.255 363.434 83.093 18.1102
internal_count=510226 478728 449868 31498 403448 28860 91074 14592 312374 46420 10189 27654 81125 36231 16906 10486 10190 4833 9949 5830 30401 2569 1841 939 12231 8140 70019 11106 6493 43244 898 306 9307 3424 3261 32108 4034 72 3962 127 295272 4402 1534 1458 1005 1403 880 6636 5263 4675 464 3850 3601 580 150 78 28560 1427 1799 27133 12015 2287 229
is_linear=0
shrinkage=0.05


Tree=12
num_leaves=64
num_cat=0
split_feature=97 111 62 94 94 65 42 94 111 70 37 65 111 69 19 69 50 69 40 70 90 91 98 98 105 20 69 65 81 62 69 81 76 88 56 53 24 47 69 105 84 91 22 111 98 111 94 22 94 70 81 58 98 19 70 105 105 53 94 24 50 98 50
split_gain=2767.1 1834.95 1510.76 447.097 365.438 324.748 320.284 280.122 429.874 211.724 177.871 167.735 153.492 137.05 132.014 125.929 122.763 210.58 136.336 122.433 105.055 96.0624 90.4985 90.4795 89.19 84.8074 97.9454 75.3978 73.0008 72.5295 68.79 68.4589 133.737 175.422 125.144 91.3793 69.5585 110.727 92.061 73.5822 84.4039 70.531 68.1679 174.819 65.5497 64.8152 136.91 81.8401 90.6153 64.6842 112.946 84.1017 64.3575 77.0495 63.5062 61.4224 60.4569 59.2457 58.5372 58.2226 57.9221 66.784 56.9886
threshold=1.5000000000000002 1.0000000180025095e-35 67.963897705078139 4.5000000000000009 2.5000000000000004 1.0000000180025095e-35 67.969997406005874 3.5000000000000004 2.5000000000000004 67.500000000000014 1.5000000000000002 1.0000000180025095e-35 21.500000000000004 2407188.0000000005 279.92500305175787 2505251.0000000005 1.5000000000000002 2586896.5000000005 7.5000000000000009 32.500000000000007 720.56500244140636 2.5000000000000004 25.955000000000002 335.00500000000005 532.50000000000011 4.5000000000000009 7688815.5000000009 1.0000000180025095e-35 1.5000000000000002 335.12080383300787 2350837.0000000005 5.5000000000000009 5.5000000000000009 7.5000000000000009 8.5000000000000018 332.50000000000006 225.50000000000003 957.50000000000011 6534554.0000000009 533.50000000000011 1.5000000000000002 4.5000000000000009 25.500000000000004 7.5000000000000009 105.004 3.5000000000000004 7.5000000000000009 3.5000000000000004 14.500000000000002 3.5000000000000004 4.5000000000000009 213.92499542236331 159.95500000000001 204.07800292968753 59.500000000000007 532.50000000000011 297.50000000000006 264.50000000000006 5.5000000000000009 105.00000000000001 1.5000000000000002 42.500500000000009 1.5000000000000002
decision_type=2 2 2 2 2 2 2 2 2 2 2 2 2 2 2 2 2 2 2 2 2 2 2 2 2 2 2 2 2 2 2 2 2 2 2 2 2 2 2 2 2 2 2 2 2 2 2 2 2 2 2 2 2 2 2 2 2 2 2 2 2 2 2
left_child=1 4 5 9 10 7 14 16 19 15 13 20 21 -1 -4 -2 17 -3 -18 25 29 42 -20 54 28 58 -27 30 -17 59 -12 32 35 -34 -35 36 37 38 39 40 -16 -38 43 45 -26 -5 -47 -48 -49 50 -13 -52 53 -32 -19 60 -14 -30 -9 -8 -15 -62 -33
right_child=3 2 6 12 -6 -7 11 8 -10 -11 27 49 56 55 31 24 18 23 22 -21 -22 -23 -24 -25 44 26 -28 -29 57 -31 52 62 33 34 -36 -37 41 -39 -40 -41 -42 -43 -44 -45 -46 46 47 48 -50 -51 51 -53 -54 -55 -56 -57 -58 -59 -60 -61 61 -63 -64
leaf_value=0.0069562742206893602 0.0017801871173189665 -0.032076155082710466 -0.0085001289320021725 0.086436093870951164 0.088023940669749043 -0.037986061076666917 0.077530792225253956 0.097982442189750649 -0.009141114315873838 -0.027658381703478931 -0.01489116373304564 -0.011293719521735145 0.073632406644625406 0.079208781016642069 0.015595941934033481 -0.0025340579265080419 -0.027673491583386792 0.0048452045039040006 0.20257115796262185 -0.0024738374526587412 0.11415808780809654 -0.02422740970000074 0.020115576493717514 0.059605124744552554 -0.0017762602795732526 0.85203313436989814 0.074245412584800566 -0.034899025223131326 0.13924989987666225 0.047084163479683694 -0.00063466417798795571 0.040479917063427316 0.095193483471079282 0.23575938024250995 0.97743285241938715 -0.028505914375642229 0.041129569078735377 0.49738898593352698 -0.005515655412654967 -0.031351057501326163 0.13752692671752528 -0.031128242154632248 0.10337354214798662 -0.045259771330199608 0.090321551608177453 -0.020110741629596279 0.12897430169281551 -0.037860995209369946 0.084658562644369648 -0.026712091128656225 0.079922009928007021 0.38101521646585618 0.042024649443783604 0.1217625818089636 -0.033442463786070652 0.029353643447937429 0.0038761242858015078 0.069084354807602916 0.1866460499214585 0.017508709440817741 0.016029725100199226 0.070943664170620854 -0.034805685656027915
leaf_weight=202.42151169106364 166.60397210344672 679.47240765951574 1367.5293575171381 606.00128493830562 298.25251609459519 3499.0590617731214 43.881125830113888 48.724820064380765 272.19999059848487 159.06777007132769 145.65861216932535 66.310458512976766 44.596732318401337 261.78409729152918 19.237338466569781 30.326661348342896 3597.8222903814167 832.32412510924041 9.7988957613706607 18.801957491785288 43.989912012591958 21.882667740806937 22.178604258224368 67.872684545814991 91.710697816684842 0.88457983545958885 0.74621552787721157 84.49456006474793 35.644080968573689 628.84222939796746 234.04009759798646 36.4441336132586 32.969358939677477 1.3737692348659032 0.97059292346239079 69.336429886519909 83.02719503082335 1.4502478428184975 39.100757984444499 11.330261602997778 54.127226436510682 56.926490031182766 269.08385538682342 29.456396076828241 24.476580513641238 47.916980726644397 49.648387800902128 22.392128769308329 46.287401393055916 154.03496225364506 28.164299285039309 2.5273413695394984 250.75763254985213 13.605240691453217 124.5028350930661 184.22296228259802 102.34064313769341 192.89883698523045 30.125490240752697 509.67728579044342 106.86972463130951 114.88598977029324 81.01393186300993
leaf_count=4051 3133 26559 46416 2807 1545 158682 752 823 9063 4895 3721 1594 621 2371 399 690 141963 27439 92 579 378 432 683 1740 1570 25 17 3067 374 8578 5434 583 332 24 22 1742 1820 22 854 217 725 1501 1131 234 306 671 263 171 196 4611 599 46 4875 218 4607 2062 1588 2894 223 12291 1255 1339 2311
internal_value=-0.0010791 -0.0086153 -0.0155501 0.0549812 0.0372149 -0.0259935 0.0132972 -0.0186387 0.0233425 0.0230585 0.0277363 0.0306659 0.0730266 0.0429965 -0.00053743 0.0379524 -0.0215624 -0.010492 -0.0267599 0.112401 0.0382882 0.0794785 0.0760256 0.0038203 0.0540204 0.139239 0.496135 0.00950959 0.0703554 0.0354655 0.0153356 0.0218083 0.0323694 0.12491 0.542821 0.0226008 0.0359627 0.0630315 0.057943 0.0872398 0.105555 0.0117385 0.0815979 0.0742891 0.0176255 0.0788491 0.0511929 0.0800673 0.0447125 -0.00657108 0.0254119 0.104716 0.0241693 0.00608965 -0.000136807 0.0539215 0.0250477 0.0800275 0.131857 0.0222667 0.0632815 0.0444792 -0.0114466
internal_weight=16374.1 14433.8 12536.8 1940.34 1896.99 9204.51 3332.26 5705.45 371.483 700.729 1598.74 1477.43 1239.61 870.184 1854.84 541.661 5333.97 1704.17 3629.8 99.2831 1226.39 1092.67 31.9775 1024.7 375.057 80.4811 1.6308 728.556 258.87 1182.4 644.062 487.308 369.85 35.3137 2.34436 334.536 265.2 125.246 123.796 84.6948 73.3646 139.954 1070.79 801.703 116.187 772.246 166.245 118.328 68.6795 251.037 97.0021 30.6916 498.403 247.645 956.827 667.763 146.937 228.543 78.8503 553.558 483.54 221.756 117.458
internal_count=510226 488250 458312 21976 29938 372495 85817 213813 10730 13862 28393 28849 8114 11078 56968 8967 203083 60345 142738 1667 21999 5905 775 33786 5834 1088 42 17315 3958 21621 14248 10552 7658 378 46 7280 5538 2217 2195 1341 1124 3321 5473 4342 1876 4108 1301 630 367 6850 2239 645 10527 5652 32046 7027 2209 3268 1046 13043 4965 2594 2894
is_linear=0
shrinkage=0.05


Tree=13
num_leaves=64
num_cat=0
split_feature=67 111 62 94 65 94 41 94 109 109 86 37 109 94 111 50 52 69 50 69 37 58 20 86 109 20 109 76 20 112 94 60 14 94 60 98 69 28 22 105 30 65 105 76 11 6 76 19 65 62 105 98 68 14 76 53 53 7 69 86 109 20 30
split_gain=2603.08 1431.22 1424.77 653.433 330.823 238.258 223.406 206.261 301.84 190.311 160.48 140.07 133.981 128.993 247.525 124.619 125.115 108.713 194.705 106.34 104.457 96.9033 92.0928 89.9171 76.4267 90.1683 75.4602 101.371 78.2815 184.838 73.9821 153.762 76.9177 73.9077 73.1379 73.041 72.3598 71.1383 71.3994 71.1719 86.8222 96.4365 78.8489 87.4013 113.592 165.861 70.8808 70.3766 69.6483 69.5246 66.3521 65.6093 64.2616 70.481 64.242 69.5823 77.7404 69.9586 69.4876 63.6942 62.012 59.9867 59.6991
threshold=1.5000000000000002 1.0000000180025095e-35 118.00999832153322 2.5000000000000004 1.0000000180025095e-35 2.5000000000000004 1.0000000180025095e-35 3.5000000000000004 2.5000000000000004 21.500000000000004 1.5000000000000002 1.5000000000000002 1.5000000000000002 5.5000000000000009 1.5000000000000002 1.5000000000000002 2.5000000000000004 2350837.0000000005 1.5000000000000002 2407188.0000000005 2.5000000000000004 1.0000000180025095e-35 4.5000000000000009 2.5000000000000004 2.5000000000000004 1.5000000000000002 9.5000000000000018 3.5000000000000004 1.5000000000000002 0.50541660189628612 1.5000000000000002 1.5000000000000002 445.25000000000006 13.500000000000002 2.5000000000000004 49.000500000000009 2753277.5000000005 2.5000000000000004 2.5000000000000004 268.50000000000006 2040.8649902343752 25.500000000000004 489.50000000000006 1.5000000000000002 610.02499389648449 2884.5000000000005 7.5000000000000009 293.24000549316412 1.0000000180025095e-35 1219.1075439453127 554.50000000000011 335.00500000000005 1.5000000000000002 29.833700180053714 2.5000000000000004 228.50000000000003 203.50000000000003 225.72499847412112 3265428.5000000005 1.5000000000000002 1.5000000000000002 4.5000000000000009 132.59114837646487
decision_type=2 2 2 2 2 2 2 2 2 2 2 2 2 2 2 2 2 2 2 2 2 2 2 2 2 2 2 2 2 2 2 2 2 2 2 2 2 2 2 2 2 2 2 2 2 2 2 2 2 2 2 2 2 2 2 2 2 2 2 2 2 2 2
left_child=1 5 4 12 7 11 15 10 62 13 17 19 -2 14 -5 20 26 47 51 -1 -4 24 33 -14 25 -8 27 -17 29 34 31 -22 -33 -10 -29 -27 59 38 39 -18 -41 42 46 -44 -45 -46 -42 -3 -13 -47 -34 -19 -24 -54 58 56 -56 -57 -32 -30 -53 -23 -9
right_child=3 2 6 9 -6 -7 21 8 22 -11 -12 48 23 -15 -16 16 37 18 -20 -21 30 61 52 -25 -26 35 -28 28 36 -31 54 32 50 -35 -36 -37 -38 -39 -40 40 41 -43 43 44 45 49 -48 -49 -50 -51 -52 60 53 -55 55 57 -58 -59 -60 -61 -62 -63 -64
leaf_value=0.0062269984105320884 0.030591179792616663 -0.035964938868827262 -0.031207674743892851 0.077928469980102597 -0.036472314019574938 0.080081181102394663 0.050445390727682907 0.093348028279782724 -0.017887848802936965 0.025225005345767187 0.0022950398773160874 0.014698414528748194 -0.02517726626848954 0.08153306499388073 0.003357719887623171 0.0027097966129369469 -0.034902848739563223 -0.0025800166464810671 -0.025669770730456995 0.048608572730562183 0.19116535037765126 -0.0045189301751972387 0.03094283361075649 0.042630153046244013 0.034174602421941223 0.22141356166394935 -0.018123710277239351 -0.052294263464704262 0.11027116617808071 0.9880286119432008 0.052720273085968307 0.026682438830142 0.14515165396932314 0.47884531458386859 0.33142899172611134 0.093306607215913315 0.021321814394465347 0.17405260819164783 0.42918538467867884 0.00030400397357635886 -0.035490563594030439 0.5124193494410475 -0.051872568697700232 0.14964895478492099 -0.051805882679665918 1.0109511510910727 0.09959616658600251 0.12704143670630863 -0.034293785727009078 0.41274192965873191 0.0074102468136875961 0.082214543149012664 0.10451478848953516 0.44879105652488138 -0.0038138108700690831 0.00031036409339038032 0.13497865786672511 0.18739607210027412 -0.021424526913429384 0.63149053506643338 -0.019026820747917811 0.12284666662325686 0.27591625391735847
leaf_weight=190.87971045449376 293.4875868614763 1333.2173356544226 64.196218194440007 293.26574389263988 3602.3140489403158 227.22983478754759 170.88347195461392 75.388788169249892 264.80158873833716 269.45190898701549 716.64601722359657 643.72569452598691 313.61315659992397 961.79409049451351 179.32788251340389 571.90901605412364 32.102723492309451 863.29281149059534 2478.7203637454659 658.95693232864141 20.131892334669828 134.54653555713594 46.034025663509965 57.920384138822556 328.94398541375995 13.403171442449091 590.90624962747097 2.2939013633877066 1.5298581067472725 0.7691030204296111 43.777433598414063 133.30015966296196 29.500711051747203 0.75095412880182166 2.7074323929846287 65.506094861775637 17.438318623229861 9.6428638678044063 1.1324947550892819 49.16912942007184 17.629697594791651 1.3196111414581526 3.9143421482294825 13.429369876161219 0.944380978122353 1.1281964592635629 21.617675323039293 6.6545950695872298 81.756505645811558 0.85288189910352219 12.425707224756477 45.317182444036007 6.9587214384227973 1.8904840983450411 14.322234015911816 61.9528319966048 34.135761050507426 5.4352850411087266 113.59954011067748 0.95018131844699372 22.7023222502321 9.9267118163406831 4.7604701817035666
leaf_count=3850 4675 55288 1683 1921 168132 1206 2516 725 9312 4334 21468 14101 11065 4408 3929 15322 973 29794 101989 6636 243 2529 1302 1166 4396 166 18953 60 38 20 876 2852 328 13 50 731 399 77 12 1448 479 19 116 153 29 26 103 164 3067 15 134 1091 166 36 366 1427 319 52 2615 22 617 160 64
